{"observationSize": 7, "actionSize": 2, "hiddenLayers": [64, 64], "activation": "tanh", "weights": {"layer0": [[-0.6966158151626587, 0.31493449211120605, 0.4423944652080536, -0.042239073663949966, -0.08054927736520767, 0.06067647039890289, 0.0758274719119072], [-0.3071596324443817, -0.8518068790435791, 0.5850222706794739, 0.050043124705553055, 0.009841715916991234, -0.11144129931926727, 0.28562790155410767], [0.5063332915306091, -0.04694470390677452, -0.5314061045646667, -0.04772820696234703, -0.008076033554971218, -0.1590021550655365, -0.27434560656547546], [0.6682705879211426, 0.5866032242774963, -0.7733212113380432, -0.15395806729793549, 0.1895543485879898, -0.09634558111429214, -0.45725756883621216], [0.6920122504234314, -2.251516580581665, -0.5424458980560303, -0.23758651316165924, -0.1329886019229889, 0.015857895836234093, 0.4581114649772644], [0.9137452244758606, -1.077018141746521, -0.7614967823028564, -0.05294544994831085, -0.034848883748054504, -0.05792037770152092, 0.2977249026298523], [0.3808823525905609, 0.07696910202503204, -0.6624932885169983, 0.04866117238998413, -0.08085107803344727, 0.23047955334186554, -0.12044348567724228], [-0.7003276348114014, 3.1047134399414062, 0.8614209890365601, -0.05469248443841934, 0.14692430198192596, -0.1343269944190979, 0.12538021802902222], [0.4872722327709198, 0.7804598212242126, -0.5598567724227905, -0.07432001829147339, -0.1738778054714203, 0.020034831017255783, -0.18406131863594055], [-0.35321399569511414, -0.5933430790901184, 0.4376862347126007, 0.39179933071136475, -0.20275476574897766, 0.3866797387599945, 0.18358400464057922], [0.5641494989395142, 1.3037924766540527, -0.27182736992836, -0.10238843411207199, 0.009336529299616814, -0.14478866755962372, -0.2395227551460266], [0.6785393357276917, -0.5732516646385193, -0.5543285012245178, -0.0935918316245079, 0.18942506611347198, 0.0338885560631752, -0.01631823182106018], [-0.8100900650024414, 1.1775028705596924, 0.6459364891052246, -0.15933750569820404, -0.10333427041769028, 0.07319325953722, 0.16313734650611877], [0.6953190565109253, -0.505002498626709, -0.6264375448226929, -0.22873280942440033, -0.048842523247003555, 0.10272563248872757, -0.10050752013921738], [-0.30587315559387207, 0.008342252112925053, 0.3021925985813141, 0.2600319981575012, 0.012215998955070972, 0.06691035628318787, -0.14834006130695343], [0.11922565847635269, -2.50958514213562, -0.027439966797828674, -0.30995169281959534, 0.06582324951887131, 0.10447685420513153, -0.20189835131168365], [-0.6423866152763367, 3.3434605598449707, 0.5098097920417786, 0.1248524859547615, -0.17163248360157013, 0.08465603739023209, -0.06603491306304932], [0.6908022165298462, -0.2526991069316864, -0.7743800282478333, -0.08961593359708786, 0.21477441489696503, 0.1382218450307846, 0.3800102770328522], [-0.7524628043174744, 0.305860310792923, 0.5129826664924622, -0.12409475445747375, -0.1848461925983429, 0.15405243635177612, -0.05642104893922806], [-0.6620832681655884, -0.34899452328681946, 0.6216279864311218, 0.010316229425370693, 0.05440859869122505, 0.12549732625484467, 0.2926137149333954], [0.4710118770599365, -0.20493140816688538, -0.6500229835510254, 0.10713304579257965, -0.09210900217294693, 0.03314711153507233, -0.15563908219337463], [0.5656754970550537, 0.5768637657165527, -0.7005744576454163, -0.07301900535821915, 0.026662005111575127, -0.05082586780190468, -0.3647327125072479], [0.5246517062187195, 0.3674578070640564, -0.5047832131385803, 0.0721110925078392, 0.1993628889322281, -0.11146514117717743, -0.48534226417541504], [-0.5801771879196167, -0.0014468624722212553, 0.6009321808815002, 0.3242599368095398, -0.1263083666563034, 0.03177017718553543, 0.4500039219856262], [-0.17268116772174835, -3.852490186691284, -0.12655451893806458, -0.1349606066942215, -0.05963514372706413, 0.0915379673242569, 0.4109226167201996], [0.6408377289772034, -0.9338783621788025, -0.6636117696762085, 0.3961077630519867, -0.031223678961396217, 0.07438826560974121, 0.20058682560920715], [0.6499609351158142, 0.2881018817424774, -0.5617708563804626, -0.5045062899589539, 0.005963133182376623, -0.14108318090438843, -0.4071987569332123], [0.5890231728553772, 0.20342665910720825, -0.8312062621116638, -0.21298328042030334, -0.0477261021733284, 0.15955466032028198, -0.25156038999557495], [0.7232108116149902, -1.2455711364746094, -0.6281149983406067, 0.26524287462234497, 0.08724705129861832, -0.11651905626058578, -0.03281375393271446], [-0.5260571837425232, -0.3700784146785736, 0.6812942624092102, -0.05816898122429848, -0.13776704668998718, -0.06302756071090698, 0.43517768383026123], [0.19340485334396362, 0.7491098046302795, -0.6263628005981445, -0.02937302179634571, -0.23818182945251465, 0.23423191905021667, -0.35369375348091125], [-0.8257473111152649, 0.7496442794799805, 0.47646835446357727, 0.15675851702690125, 0.25775572657585144, 0.0053184749558568, -0.06649621576070786], [-0.455008327960968, -0.44363176822662354, 0.8151026964187622, 0.16910327970981598, -0.2154686003923416, -0.060405340045690536, -0.057940687984228134], [-0.14445500075817108, -0.004106862936168909, 0.5547939538955688, -0.36243394017219543, 0.09851095825433731, 0.11755809187889099, -0.11641757190227509], [0.5596604943275452, 0.04483433812856674, -0.57150799036026, 0.3129451274871826, -0.007688021287322044, -0.02083994634449482, -0.5360080003738403], [0.3663792610168457, 1.0861490964889526, -0.3879719078540802, 0.26940375566482544, 0.03675097972154617, -0.1343715339899063, -0.2887609601020813], [0.2583765983581543, -0.5246405601501465, -0.341726690530777, 0.13178154826164246, 0.1391948014497757, -0.36598968505859375, -0.01484766136854887], [-0.038464706391096115, 1.0983823537826538, 0.37898701429367065, 0.10227946192026138, 0.016935499384999275, 0.12477299571037292, -0.3647978901863098], [-0.4645933508872986, -1.316147804260254, 0.21679341793060303, 0.03870891407132149, -0.11798610538244247, 0.2223600149154663, 0.20402824878692627], [-0.6028997898101807, -0.9398002624511719, 0.5415505766868591, 0.0014203391037881374, 0.1802336424589157, -0.19606922566890717, 0.9151915311813354], [-0.4757312536239624, 0.41543081402778625, 0.8352238535881042, -0.24518586695194244, -0.3016469180583954, -0.2105158120393753, 0.06968812644481659], [0.5746635794639587, 1.0864439010620117, -0.6206046938896179, -0.149762824177742, -0.07128146290779114, 0.18415407836437225, -0.4003107249736786], [-0.4322071671485901, 0.8973491787910461, 0.5093967318534851, -0.2733496129512787, 0.03699624165892601, -0.07454925030469894, -0.21311162412166595], [-0.9629026055335999, 1.0753438472747803, 0.6566574573516846, -0.053254466503858566, 0.3332924246788025, -0.0964091569185257, -0.04381800442934036], [-0.7646337151527405, -0.5265997648239136, 0.3975791037082672, -0.4347778558731079, -0.017666490748524666, 0.12322881072759628, -0.15403154492378235], [0.5034170150756836, 1.2125111818313599, -0.36830446124076843, 1.0958988666534424, 0.48606351017951965, -0.022557349875569344, 0.19011104106903076], [-0.30874255299568176, 1.7216306924819946, 0.24060681462287903, 0.34390345215797424, -0.003670490812510252, -0.16591179370880127, 0.24375325441360474], [0.6891315579414368, 0.4653477966785431, -0.36532583832740784, -0.08196301758289337, -0.05412428826093674, -0.29682138562202454, -0.5062001347541809], [-0.6988989114761353, 2.735165596008301, 0.9342050552368164, 0.18785078823566437, -0.383272260427475, 0.08993718773126602, -0.027403872460126877], [-0.40975862741470337, -0.6107288002967834, 0.35554641485214233, 0.19307972490787506, -0.02741306647658348, 0.22969654202461243, 0.43143635988235474], [-0.5176499485969543, -0.623187243938446, 0.18450774252414703, 0.24022144079208374, 0.09009690582752228, 0.22080571949481964, 0.31816574931144714], [-0.40710192918777466, 4.077614784240723, 0.1756485253572464, -0.13473540544509888, 0.07130114734172821, 0.1016361191868782, 0.447405606508255], [0.6666393280029297, 0.2864006459712982, -0.4540514647960663, -0.09986624121665955, 0.11694367229938507, -0.06462931632995605, -0.46641266345977783], [0.7515068650245667, -0.6938952207565308, -0.7030389904975891, 0.5179656744003296, 0.031194662675261497, -0.02354401722550392, -0.0647924393415451], [-0.29004380106925964, -1.1312339305877686, 0.48161572217941284, -0.2557237446308136, -0.08336444199085236, 0.08718007802963257, 0.3669887185096741], [-0.7008857727050781, -0.3629739284515381, 0.6183119416236877, -0.04698861390352249, 0.22169457376003265, 0.10201834887266159, -0.04430265724658966], [0.738793134689331, -0.774664580821991, -0.5418676137924194, 0.11426935344934464, 0.3058565557003021, -0.09937458485364914, 0.08196591585874557], [0.5652596354484558, 0.4800211191177368, -0.6026571989059448, -0.11726772040128708, -0.26624956727027893, -0.005530152469873428, -0.2601971924304962], [0.6266672611236572, -0.7358844876289368, -0.5795451402664185, -0.02179819904267788, 0.09288064390420914, 0.1645018607378006, -0.17488983273506165], [-0.8370637893676758, 1.3495126962661743, 0.7852268815040588, -0.7046136856079102, 0.006445224862545729, 0.05302948132157326, 0.03779151290655136], [-0.7656024098396301, -0.3248865604400635, 0.709189772605896, 0.18756285309791565, 0.16051901876926422, -0.0843098908662796, 0.7243379354476929], [-0.6239355802536011, 0.23545712232589722, 0.47172147035598755, 0.08028526604175568, -0.0023384899832308292, 0.13546717166900635, 0.07196822762489319], [0.5826255679130554, 1.029675841331482, -0.41245129704475403, -0.15327879786491394, 0.029505617916584015, 0.031413715332746506, -0.23855793476104736], [0.19745367765426636, 0.04140124469995499, -0.19547897577285767, 0.5532288551330566, 0.0066268001683056355, 0.14228719472885132, -0.16395172476768494]], "layer1": [[-0.9048413038253784, 0.2632561922073364, -0.6601305603981018, -0.4267966151237488, -0.7707754969596863, -0.38714227080345154, 1.2150019407272339, 0.7533581256866455, 0.046406444162130356, 0.7463569641113281, 0.5229222178459167, 0.7240301370620728, 0.47553467750549316, 0.4748864471912384, 0.46072983741760254, 0.1394127756357193, 0.41336461901664734, 0.973758339881897, -0.6317270994186401, 0.9598586559295654, -0.4467831552028656, -0.7812257409095764, 0.4921896159648895, 0.7644493579864502, -0.4861297011375427, 0.6938562393188477, -0.8822475671768188, -0.10823169350624084, 0.28490856289863586, -0.4815073013305664, 0.019168514758348465, -0.6516829133033752, 1.0056841373443604, -1.0573747158050537, 1.2477976083755493, 0.489475816488266, -1.1280442476272583, -0.8493834137916565, -0.654958963394165, -0.6396821737289429, -0.9866514205932617, 0.40293946862220764, -0.8521027565002441, -0.1790798306465149, -0.9814929962158203, 0.9000447988510132, -0.22040021419525146, -0.6723190546035767, 0.7131578922271729, 0.5401349663734436, 0.4268825948238373, 0.7382099628448486, 0.6756182909011841, 0.9845066666603088, -0.06320563703775406, 0.6277859210968018, 0.5959652662277222, -0.7215557098388672, 1.0001718997955322, 0.19111625850200653, 0.14221762120723724, 0.7610993981361389, 0.45510509610176086, -0.8712424635887146], [0.8659639954566956, -0.5477418303489685, 0.8244178295135498, 0.14340220391750336, 0.19834919273853302, -0.4004548490047455, -1.162184715270996, -0.5466058850288391, -0.1164645180106163, -0.8133296370506287, -0.8688991665840149, -0.6155653595924377, 0.16274860501289368, -1.0338175296783447, -0.8319923877716064, 0.0011733707506209612, -0.5350496768951416, -0.7720063328742981, 0.7978346347808838, -0.5011423826217651, 0.8193600177764893, 0.5762572288513184, -0.8045742511749268, -0.26201871037483215, 1.3355681896209717, -0.26084333658218384, 0.5977107286453247, -0.07276863604784012, 0.04441313073039055, 0.2971421480178833, 0.42219361662864685, 1.1184329986572266, -0.7164395451545715, 0.8913818001747131, -0.4910282790660858, 0.08353998512029648, 0.7463476061820984, 0.026283111423254013, 0.2615894079208374, 0.7763089537620544, 0.7925673127174377, -0.8632197380065918, 0.6164069771766663, 1.000453233718872, 1.0442514419555664, -1.0135434865951538, 0.3735700845718384, 0.13835963606834412, -0.9081120491027832, -0.6721879839897156, -0.40123552083969116, -0.9091078042984009, -0.8669497966766357, -0.4140981435775757, -0.3726153075695038, -0.4827728867530823, -0.6322361826896667, 0.19919070601463318, -1.118175745010376, -0.30741623044013977, 1.0900323390960693, -0.6379567384719849, -1.2488263845443726, 0.7989155650138855], [0.3244623839855194, 0.15793953835964203, -0.16410435736179352, -1.708089828491211, -0.7489956617355347, -1.5642412900924683, -0.34225553274154663, 0.26329225301742554, -1.1091313362121582, -0.07179545611143112, -0.8163690567016602, -0.6066649556159973, 1.194699764251709, -1.2247291803359985, 0.05350746214389801, 0.1072750985622406, 0.10302641987800598, -0.9428523778915405, 0.43328094482421875, 1.3049317598342896, -0.1749754548072815, -1.1092718839645386, -0.8903782367706299, 1.3335654735565186, -0.10664097219705582, -0.9842574000358582, -1.1727579832077026, -3.7912981510162354, -0.8919403553009033, 2.4470338821411133, -0.01575787551701069, 0.7856780886650085, 0.6931823492050171, 0.18753382563591003, -4.154840469360352, -0.1734192669391632, -0.1917460858821869, 0.1884099543094635, 0.3837335407733917, 0.8630965948104858, 1.0320144891738892, -1.5586824417114258, -0.10677924752235413, 0.9547628164291382, 0.5188288688659668, 0.004720230586826801, 0.2047809660434723, -0.9990025758743286, 0.3803871273994446, 0.4585660696029663, 0.008989319205284119, 0.17753517627716064, -0.4206183850765228, -1.8364951610565186, 0.07465846091508865, 1.2041553258895874, -0.5605875849723816, -0.7487789988517761, -0.7130269408226013, 1.1982574462890625, 2.267902135848999, 0.7379865646362305, -0.5150529742240906, -0.11025159806013107], [1.1586593389511108, -0.3637990653514862, 0.890706479549408, 0.8542466163635254, 0.2313406616449356, 0.6420884728431702, -0.7794345021247864, -0.42192211747169495, 0.14654211699962616, -0.7020524144172668, -0.08415371924638748, -0.7855210900306702, -0.4129326045513153, -0.4325111210346222, -0.11674653738737106, 0.2464143931865692, -0.6437446475028992, -0.44582465291023254, 0.41684553027153015, -0.5883311033248901, 0.536771297454834, 0.6586756706237793, -0.3163263201713562, -0.8789821267127991, 0.3944418430328369, -0.5148527026176453, 0.9571458101272583, 0.9169729948043823, -0.21950724720954895, -0.1571868360042572, 0.38430988788604736, 0.9045193791389465, -0.7247866988182068, 0.757334291934967, -1.750909686088562, -0.5943478345870972, 0.7981411218643188, 0.8532093167304993, 0.6267212629318237, 0.38066351413726807, 0.7908437252044678, 0.020639030262827873, 0.548494815826416, 0.2632885277271271, 1.0522029399871826, -1.278512954711914, 0.057461123913526535, 0.009043711237609386, -0.6473081707954407, -0.5598902702331543, 0.21190495789051056, -0.5720599293708801, -0.8930450081825256, -0.8686891198158264, 0.22060418128967285, -0.35956084728240967, -0.4583260715007782, 0.42033424973487854, -0.7059288024902344, -0.10399358719587326, 0.11705869436264038, -0.7258175015449524, -0.6418569087982178, 0.6107697486877441], [0.9158727526664734, -0.2481520175933838, 0.6287103891372681, 0.168202206492424, 0.03780556842684746, -0.057697515934705734, -0.5196490287780762, -0.32848578691482544, 0.1521836370229721, -0.7776198983192444, -1.3992445468902588, -0.6714940071105957, 0.19007191061973572, -0.7944456338882446, -0.5520434379577637, 0.2030230015516281, -0.2800317406654358, -0.6970131993293762, 0.5996478199958801, -0.49471133947372437, 0.7144814729690552, 0.20746472477912903, -0.2360864132642746, 0.38979509472846985, 1.6970198154449463, -0.42391902208328247, 0.0692252591252327, 0.07965987175703049, 0.18312735855579376, 0.4899523854255676, 0.1454208493232727, 1.4237706661224365, -0.6046129465103149, 0.1793748140335083, -0.7570734024047852, 0.2675561308860779, 0.5936296582221985, 0.11729677766561508, 1.2705081701278687, 1.4619555473327637, 0.22096477448940277, -1.5845195055007935, 0.8135678768157959, 1.5260767936706543, 0.9249973297119141, -0.20746606588363647, 0.19432158768177032, -0.30274954438209534, -0.46877413988113403, -0.5225657820701599, 0.3251425623893738, -0.2541571855545044, -1.1080080270767212, -0.5151286125183105, -0.7499106526374817, -0.3288644552230835, -0.38870081305503845, 0.2272653728723526, -0.7157724499702454, -0.14149105548858643, 1.6397186517715454, -0.14735953509807587, -2.1549577713012695, 0.9109814167022705], [0.09738752245903015, -0.23785284161567688, -0.1890150010585785, 0.6426851153373718, -0.26881682872772217, 0.08563156425952911, -0.33161842823028564, 0.07508264482021332, 0.3027239441871643, -0.07848925143480301, 0.38213297724723816, -0.21245965361595154, 0.27535754442214966, -0.011343863792717457, -0.2644520103931427, 0.0701022669672966, 0.4887673258781433, -0.2638307809829712, -0.04629014804959297, -0.6347463130950928, -0.04381292685866356, 0.7162131071090698, -0.227154940366745, -0.07795167714357376, -0.5585913062095642, -0.46352618932724, 0.2655474841594696, 0.8611486554145813, -0.7264710664749146, -0.11045126616954803, 0.034969478845596313, 0.025688158348202705, -0.12368673831224442, 0.3868923485279083, -0.3032194972038269, 0.1362484246492386, -0.05766589194536209, 0.15325862169265747, -0.05304728448390961, -0.09739792346954346, 0.09843862801790237, 0.8654351234436035, 0.28975024819374084, 0.14335176348686218, 0.330372154712677, -0.23909226059913635, 0.4874335825443268, 0.4198262691497803, 0.0919073224067688, -0.060192547738552094, 0.004114500712603331, 0.23156170547008514, 0.21535851061344147, -0.04613383114337921, 0.031427908688783646, -0.13047969341278076, 0.16189239919185638, 0.06423233449459076, 0.2217133343219757, 0.009022281505167484, -0.44654273986816406, 0.22534909844398499, 0.22265614569187164, -0.1469516158103943], [0.6338151693344116, -1.4885071516036987, -0.2802305519580841, 1.5386751890182495, -4.411731719970703, -4.543545722961426, -0.08471518754959106, 2.9029667377471924, 1.5652319192886353, -0.036393724381923676, 5.602898597717285, -0.39444488286972046, 3.2228689193725586, -0.5646685361862183, 0.28512582182884216, -3.086674690246582, 2.0622496604919434, -0.0034800823777914047, 0.5040455460548401, -1.0276951789855957, -0.24669522047042847, 1.1220850944519043, 1.0827070474624634, 0.0896434411406517, -6.8924126625061035, -0.5942208766937256, 0.40270793437957764, 1.4504070281982422, -2.9028756618499756, -2.131275177001953, 0.9452208280563354, 0.8810160756111145, -0.8159404397010803, 0.2876568138599396, 1.8005650043487549, 2.41827392578125, -0.016964290291070938, 1.2080354690551758, -2.935987949371338, -1.977388620376587, 0.3955400586128235, 5.339717864990234, 0.6366131901741028, 1.568045973777771, -0.2916776239871979, 0.08971716463565826, 2.0368382930755615, 1.534925103187561, 1.660646677017212, -0.07040300220251083, -0.8001570105552673, 2.8292524814605713, 0.6793676018714905, -0.8134332895278931, -1.691231608390808, -0.528876006603241, -0.7447926998138428, 0.87956702709198, -0.31670019030570984, 3.796738862991333, -1.7741918563842773, 0.7460752129554749, 2.3612475395202637, 0.5565435290336609], [-0.3853180706501007, -0.791740894317627, -0.002307470655068755, 1.3584102392196655, -3.5130834579467773, -1.8156052827835083, 0.4122117757797241, 2.357372283935547, 1.1519471406936646, 0.11661738157272339, 2.9714856147766113, -0.4258442223072052, 1.5140104293823242, 0.22524051368236542, 0.34043726325035095, -1.3142215013504028, 1.7175954580307007, 0.25844287872314453, -0.1451486051082611, -0.4976613223552704, -0.13002677261829376, 0.5849243402481079, 0.7992996573448181, -0.06172685697674751, -5.3155694007873535, -0.003436274593695998, -0.16972163319587708, 1.5639570951461792, -1.3067010641098022, -1.420668363571167, 0.5572197437286377, 0.3528538644313812, -0.47415146231651306, 0.09427172690629959, 1.360754132270813, 1.430450201034546, -0.09025096893310547, 0.12485481053590775, -1.7827767133712769, -1.6020785570144653, 0.26106709241867065, 3.999239683151245, 0.2982538640499115, 0.8359228372573853, -0.5461216568946838, 0.3909391462802887, 1.0983209609985352, 0.3698568344116211, 1.3576802015304565, 0.18089258670806885, -0.5712335109710693, 2.288921356201172, 0.1263909488916397, 0.09037256985902786, -1.115200400352478, -1.0206382274627686, -0.02934190444648266, 0.8813719153404236, -0.07362483441829681, 1.1846303939819336, -1.266056776046753, 0.697506308555603, 1.442028284072876, 0.020437652245163918], [-0.06551247090101242, -1.0854530334472656, 0.2329988181591034, 2.9157633781433105, -9.184991836547852, -2.067854881286621, 0.7055041790008545, 8.122064590454102, 1.5695698261260986, 0.1739264577627182, 5.099376678466797, 0.06797930598258972, 1.6044354438781738, 0.14698342978954315, -0.07552683353424072, -1.5788391828536987, 9.14883041381836, 0.41184884309768677, -0.056492943316698074, -0.9015213847160339, -0.6583976745605469, 1.9250459671020508, 1.2850905656814575, -0.005968269892036915, -7.619577407836914, -0.5875955820083618, 0.7939421534538269, 1.3628190755844116, -1.0825272798538208, -1.7059434652328491, 0.41180509328842163, 0.4644739031791687, -1.5777949094772339, -1.0104984045028687, 0.654668927192688, 2.733520984649658, -1.079156517982483, -0.17212346196174622, -4.0591840744018555, -4.594588756561279, -0.2721572816371918, 6.25847053527832, 0.4133208692073822, 1.1886957883834839, -0.7276590466499329, 1.0141500234603882, 1.4165760278701782, 1.3284335136413574, 5.9265031814575195, -0.09722302854061127, -0.9822884202003479, 8.738907814025879, 1.0807483196258545, -0.13261842727661133, -1.4445439577102661, -0.9097486734390259, 0.10796511918306351, 0.7281055450439453, -0.0005727807292714715, 1.6415917873382568, -2.4431371688842773, 1.0636729001998901, 3.0368263721466064, -0.09413104504346848], [1.0236858129501343, 0.019973166286945343, 0.547189474105835, 0.7181754112243652, 0.36946794390678406, 0.41285932064056396, -0.8840842247009277, -0.8176229000091553, 0.00512854615226388, -1.171806812286377, -0.46353310346603394, -1.012721061706543, -0.3483186960220337, -1.057963490486145, -0.6719558238983154, 0.49229660630226135, -0.37964457273483276, -0.8331157565116882, 1.055107831954956, -0.7978708744049072, 0.4214812219142914, 0.5919267535209656, -0.5301949381828308, -0.34437689185142517, 0.6816641688346863, -0.6153444051742554, 0.9583377838134766, -0.12878504395484924, 0.14649946987628937, 0.38519546389579773, 0.25143030285835266, 1.1385475397109985, -0.7012676000595093, 0.8487842679023743, -0.9612627625465393, -0.2700672447681427, 1.012574553489685, 0.8065246939659119, 0.26229605078697205, 0.6333872675895691, 0.8761293888092041, -0.06840881705284119, 0.7620440125465393, 0.449563205242157, 1.0142271518707275, -0.969565212726593, 0.0526210218667984, 0.7257409691810608, -0.37378427386283875, -0.8120532035827637, -0.7460007667541504, -0.8956233263015747, -0.503030002117157, -0.7879161834716797, -0.44251999258995056, -1.018254280090332, -0.3753771185874939, 0.5190155506134033, -0.7537755370140076, -0.5007168650627136, 0.3339401185512543, -0.7111955881118774, -0.9951855540275574, 0.7145382165908813], [0.06567563861608505, -0.31822365522384644, 0.271662175655365, -0.04233478754758835, -0.30857694149017334, -0.22769948840141296, -0.03907644376158714, 0.11568587273359299, 0.6501163840293884, -0.09758470952510834, 0.13742151856422424, -0.07180371135473251, 0.2818595767021179, 0.07763274013996124, -0.0724666565656662, -0.09548819065093994, -0.032220736145973206, -0.03878745436668396, -0.07061554491519928, -0.4064517617225647, 0.044192709028720856, 0.14800956845283508, -0.34363746643066406, 0.2894626557826996, -0.25140658020973206, -0.08086956292390823, 0.03234124928712845, 0.19336459040641785, -0.4222133159637451, -0.4290085434913635, 0.1426963210105896, 0.11601707339286804, 0.005940902512520552, -0.17245368659496307, -0.19142107665538788, 0.1532776653766632, -0.10012448579072952, 0.06194460764527321, -0.19102399051189423, -0.5560587644577026, 0.15366558730602264, 0.8267626166343689, 0.2180519998073578, -0.15560616552829742, 0.017547348514199257, 0.05416998639702797, 0.7362827062606812, 0.1667965054512024, 0.8924760818481445, -0.13472586870193481, 0.10046055167913437, 0.1662147492170334, 0.1004580482840538, -0.08324635773897171, -0.045538630336523056, -0.4601433277130127, -0.30455470085144043, 0.04654345288872719, 0.026732714846730232, 0.21067069470882416, -0.802621603012085, 0.3355329632759094, 0.35479632019996643, -0.3191467523574829], [0.6402143239974976, -0.3106740713119507, 0.6092934012413025, 0.8310640454292297, 0.8344804048538208, 0.225570410490036, -0.9947550296783447, -0.5396100282669067, -0.40856456756591797, -1.2223851680755615, -0.29243019223213196, -1.132662296295166, -0.5476298928260803, -0.7031068205833435, -0.6996881365776062, 0.19051490724086761, -0.5790499448776245, -1.0339326858520508, 0.7745606899261475, -0.8365371227264404, 0.36356261372566223, 0.5788469910621643, -0.3895975947380066, -0.42697229981422424, 0.6719856858253479, -0.7881097793579102, 0.6252244114875793, -0.19169263541698456, 0.3551248013973236, 0.38833481073379517, 0.21842500567436218, 0.6151556968688965, -0.19840317964553833, 0.42688944935798645, -0.8881869316101074, 0.4018317759037018, 1.0480374097824097, 0.29094552993774414, 0.1701178103685379, 0.46739891171455383, 1.018197774887085, -0.2984415590763092, 0.6693847179412842, 0.6436510682106018, 0.7385586500167847, -1.4834537506103516, 0.4911822974681854, 0.8841161727905273, -0.6146650314331055, -0.8427562713623047, -0.7627629637718201, -0.5340133309364319, -0.6560932397842407, -0.8838274478912354, -0.4583817422389984, -0.4181334972381592, -0.4989573061466217, 0.07860583066940308, -1.084021806716919, -0.2866111993789673, 0.11265803128480911, -0.8413848876953125, -0.7888445258140564, 0.8200264573097229], [0.44147998094558716, 0.2002377063035965, 0.6268351078033447, -1.0836787223815918, 0.6222784519195557, -0.21354787051677704, -0.775373637676239, -0.8178725838661194, -0.3236200213432312, -0.859241783618927, -2.214959144592285, -0.41316652297973633, 0.09151383489370346, -0.5786354541778564, -0.6420115828514099, 0.3389548361301422, -0.8274896144866943, -0.7315018177032471, 0.6397345066070557, 0.2233808934688568, 0.38372260332107544, -0.023266594856977463, -0.9141914248466492, 0.6586019992828369, 2.4072535037994385, -0.25140777230262756, 0.030795224010944366, -1.4951144456863403, 0.1414623111486435, 0.9841611981391907, 0.6894530653953552, 1.2409240007400513, 0.1318129450082779, 0.4524637460708618, -2.224327325820923, -0.3935904800891876, 0.7898409366607666, -0.2727617025375366, 1.6942726373672485, 2.3481686115264893, -0.009588374756276608, -2.367140769958496, -0.09593981504440308, 1.5364813804626465, 0.8696239590644836, -0.14037907123565674, -0.09115009754896164, -0.41594448685646057, -1.51157808303833, -0.4346064627170563, 0.24939016997814178, -1.3435410261154175, -1.419305443763733, -0.6787070035934448, 0.10771700739860535, 0.31490886211395264, -0.37641340494155884, -0.06469552963972092, -0.6960394978523254, 0.11827591061592102, 2.3725008964538574, 0.4019317924976349, -3.5095911026000977, 0.0885106772184372], [-0.2597382068634033, -0.06777141243219376, -0.18153893947601318, -0.1522168070077896, -0.4154091477394104, -0.731131911277771, -0.009169542230665684, 0.13992621004581451, -0.12374541908502579, 0.28343531489372253, 0.15630610287189484, 0.10357370227575302, 0.05246473103761673, -0.10641134530305862, 0.42692798376083374, -0.21910515427589417, -0.04960015416145325, 0.022739583626389503, -0.5016915798187256, 0.273868590593338, -0.09574656933546066, -0.1649434119462967, 0.9734947085380554, 0.2962527275085449, 0.04355401545763016, 0.2111438512802124, -0.8283054828643799, -1.113821029663086, 0.2457413673400879, -0.5983110070228577, -0.486476331949234, 0.08248632401227951, 0.1105467826128006, -0.9759381413459778, 2.085192918777466, 0.7501661777496338, 0.23591259121894836, -0.8182189464569092, -0.38576123118400574, 0.31051474809646606, -0.8625749945640564, -0.2880142331123352, -0.43581917881965637, 0.3760022819042206, -0.29348358511924744, 0.7916618585586548, 0.1100592091679573, -0.04816329479217529, 0.3128398060798645, 0.18169714510440826, -0.34128668904304504, 0.15601789951324463, 0.14388935267925262, 0.27241429686546326, -0.738991916179657, 0.8743476271629333, 0.3173789083957672, -0.9814534783363342, 0.36354172229766846, -0.12034212797880173, 1.0747798681259155, 0.31298381090164185, -0.1633109599351883, 0.5836171507835388], [-0.13204528391361237, -0.8672576546669006, 0.06635569781064987, 1.8706130981445312, -6.85738468170166, -1.8293381929397583, 0.5095759034156799, 6.413579940795898, 0.9860038161277771, 0.17299915850162506, 3.728459358215332, 0.07534505426883698, 1.034509301185608, 0.11541050672531128, -0.2607545852661133, -0.4595905840396881, 6.3459858894348145, 0.32588842511177063, -0.21790717542171478, -0.9573162794113159, -0.47949686646461487, 1.4593323469161987, 0.7101099491119385, 0.4575623869895935, -5.594028472900391, -0.13488085567951202, 0.5131366848945618, 0.704999566078186, -0.7717810869216919, -1.1611665487289429, 0.27893856167793274, 0.23476581275463104, -0.9623991847038269, -0.8603971004486084, -0.2456546425819397, 1.8397037982940674, -0.728925347328186, 0.021678602322936058, -3.2676801681518555, -3.4250638484954834, -0.3864791691303253, 4.175469875335693, 0.2600283920764923, 0.9743547439575195, -0.5156684517860413, 0.8382698893547058, 0.49810248613357544, 0.9679469466209412, 4.389803409576416, -0.14185287058353424, -0.6620564460754395, 6.374894142150879, 0.3871329128742218, -0.4850555658340454, -1.5734858512878418, -0.6531068682670593, 0.06857726722955704, 0.7869487404823303, -0.20640316605567932, 1.5132944583892822, -1.6054081916809082, 0.9165031313896179, 2.2718420028686523, 0.10810793936252594], [-0.7635142803192139, 0.13954877853393555, -0.6793900728225708, -0.5643954873085022, -0.2609764039516449, -0.4841039478778839, 0.99171382188797, 0.4569846987724304, 0.039156682789325714, 0.9315153956413269, 0.3745048940181732, 0.5798081755638123, 0.4549176096916199, 0.4868808090686798, 0.006075327284634113, -0.026126965880393982, 0.09652271866798401, 0.5727408528327942, -0.5585487484931946, 0.9491522312164307, -0.8455971479415894, -0.35163572430610657, 0.5923524498939514, 0.5374426245689392, -0.2994317412376404, 0.6313120722770691, -1.0465914011001587, -0.5198869109153748, -0.38251346349716187, -0.35732537508010864, -0.10324647277593613, -0.35657283663749695, 0.5000097751617432, -0.6680259108543396, 1.1521801948547363, 0.1672898828983307, -0.48735880851745605, -0.5918904542922974, -0.23343369364738464, -0.7393225431442261, -0.6482003331184387, 0.34551119804382324, -0.875392496585846, -0.16308508813381195, -0.9937992691993713, 0.9766349792480469, -0.38703566789627075, -0.6498956680297852, 0.4505082666873932, 0.666161835193634, 0.4374963045120239, 0.7954521179199219, 0.8175188302993774, 0.3917788565158844, -0.015975017100572586, 0.23657861351966858, 0.48544225096702576, -0.7732275128364563, 0.9970905184745789, 0.2148788571357727, -0.3590240180492401, 0.6558598279953003, 0.9216979146003723, -0.6046480536460876], [0.6070688962936401, 0.45338985323905945, -0.11842197179794312, -2.2162609100341797, -0.6162372827529907, -1.46884024143219, -0.4281759560108185, 0.5514516830444336, -1.4428528547286987, -0.013524012640118599, -0.7324447631835938, -0.4665330648422241, 1.360748529434204, -0.9888862371444702, -0.19625505805015564, 0.0993603989481926, 0.2932235300540924, -0.8597643375396729, 0.5815441608428955, 1.2586973905563354, -0.2223193496465683, -1.5331780910491943, -0.95125812292099, 1.3952773809432983, -0.29075223207473755, -0.8056943416595459, -0.8372269868850708, -3.9193389415740967, -1.2609570026397705, 2.178060293197632, -0.11938855797052383, 0.7389537692070007, 1.0297038555145264, 0.11907898634672165, -3.778947353363037, -0.3710639476776123, 0.06558108329772949, 0.14136941730976105, 0.6079961061477661, 0.8406871557235718, 0.4965069591999054, -1.301540493965149, -0.14939548075199127, 1.2025681734085083, 0.10129474103450775, -0.21745963394641876, 0.3073256313800812, -1.2289313077926636, 0.119814433157444, -0.09572302550077438, -0.04945387318730354, 0.3081671893596649, -0.49003198742866516, -1.6879491806030273, 0.050987325608730316, 1.0686137676239014, -0.776850700378418, -0.8123844265937805, -0.33070051670074463, 1.0194144248962402, 2.4831790924072266, 0.4989088773727417, -0.29492440819740295, 0.3524850904941559], [-0.9026155471801758, 0.07565498352050781, -0.3185631036758423, -0.3410835266113281, -0.2607026994228363, -0.6149721145629883, 0.8383398652076721, 0.4201976954936981, 0.0694701075553894, 0.8779647946357727, 0.4643743336200714, 0.8087125420570374, 0.24114228785037994, 0.6574282050132751, 0.2270762324333191, -0.14758384227752686, 0.4496103823184967, 0.4462990164756775, -0.4915129244327545, 0.7374647855758667, -0.5102652907371521, -0.9391738176345825, 0.4575817883014679, 0.5798818469047546, -0.07159373909235, 0.3978154957294464, -0.7879561185836792, -0.34064239263534546, -0.24232137203216553, -0.23883475363254547, -0.024293743073940277, -0.3223437964916229, 0.31546759605407715, -1.236915946006775, 1.2405121326446533, 0.367480993270874, -0.912617027759552, -0.7821939587593079, -0.40024900436401367, -0.39092862606048584, -1.2071170806884766, 0.35932838916778564, -0.8396878242492676, -0.2050989866256714, -0.7105435132980347, 1.2041780948638916, 0.15793950855731964, -0.7994899749755859, 0.35734158754348755, 0.9967397451400757, 0.23509228229522705, 0.7445256114006042, 0.5983110070228577, 0.7229768633842468, -0.650665283203125, 0.8144700527191162, 0.5969958901405334, -0.5948809385299683, 0.5985273718833923, 0.039264533668756485, -0.09005165845155716, 0.7153851389884949, 0.6122989654541016, -0.16495926678180695], [0.6449443101882935, -0.1940142661333084, 0.21952107548713684, 0.8299899697303772, 0.5285565257072449, 0.24391551315784454, -0.53000807762146, -0.5277292132377625, 0.04236408695578575, -0.7777315378189087, -0.43585699796676636, -0.6931321620941162, -0.37034475803375244, 0.06010213494300842, 0.4643170237541199, 0.3942248523235321, -0.15754148364067078, -0.3984939157962799, 0.27893540263175964, -0.5266888737678528, 0.4877695143222809, 0.3936876654624939, -0.6091193556785583, -0.4303539991378784, 0.17033469676971436, -0.700302243232727, 1.0540353059768677, 1.0484261512756348, -0.14213155210018158, -0.34271302819252014, 0.22012002766132355, 0.5538133382797241, -0.8838250637054443, 0.9128608703613281, -1.4343981742858887, -0.656398355960846, 0.5945085883140564, 0.785135805606842, 0.4529667794704437, 0.21177175641059875, 0.5670014023780823, 0.07490134984254837, 0.5077652931213379, 0.09810612350702286, 0.6521499752998352, -0.7961251139640808, -0.2679920792579651, 0.0645742416381836, -0.2458798885345459, -0.4024086594581604, 0.03940695524215698, -0.10688880831003189, -0.3968239426612854, -0.48898792266845703, 0.7198166847229004, -0.2062300592660904, -0.8730833530426025, 0.6695993542671204, -0.4659508764743805, -0.14705060422420502, -0.251485675573349, -0.8045755624771118, -0.2176365703344345, 0.11179690808057785], [0.2808270752429962, -0.42278221249580383, 0.09221362322568893, 1.3160300254821777, -0.018335437402129173, 0.17575383186340332, -0.30742987990379333, 0.022140227258205414, -0.19177523255348206, -0.29921871423721313, 0.5190536975860596, -0.06094788759946823, 0.00524241803213954, -0.13865572214126587, 0.16118186712265015, -0.14384576678276062, -0.16305279731750488, 0.14909179508686066, 0.31515568494796753, -0.37963950634002686, 0.3500262498855591, 0.7797996401786804, 0.1854896992444992, -0.3187500238418579, -0.4544289708137512, -0.8273740410804749, 0.5000065565109253, 0.7335935235023499, -0.06766699254512787, -0.47507157921791077, 0.15299585461616516, 0.6708554625511169, -0.8504500389099121, 0.7366328239440918, -0.5211930871009827, -0.01334877498447895, 0.3411322236061096, 0.4484710991382599, 0.1619551032781601, -0.2796221375465393, -0.1769041270017624, 0.6897692680358887, 0.5480700731277466, 0.06747686862945557, 0.06622328609228134, -0.4792737662792206, 0.5170384049415588, 0.1454053521156311, 0.36654016375541687, -0.13685397803783417, 0.3088825047016144, -0.02468331716954708, 0.09998027980327606, 0.06282038986682892, -0.1856711208820343, -0.19189250469207764, -0.10044051706790924, -0.0028476594015955925, -0.5798405408859253, 0.23151670396327972, -0.21158303320407867, -0.11111162602901459, 0.1820000857114792, 0.284813791513443], [0.541052520275116, 0.5434247255325317, -0.5140648484230042, -2.482732057571411, -0.4076945185661316, -1.9059168100357056, -0.2273755669593811, 0.4954371452331543, -1.4213011264801025, 0.10494112968444824, -0.7851861715316772, -0.3518356382846832, 1.2190216779708862, -1.1357529163360596, -0.07818441838026047, -0.20727725327014923, 0.05458451062440872, -0.5809192061424255, 0.4827321171760559, 1.4035121202468872, -0.5914740562438965, -1.2488152980804443, -0.804695188999176, 1.7156716585159302, -0.0037305892910808325, -1.3376069068908691, -1.2049654722213745, -4.429983139038086, -1.3261388540267944, 3.0314486026763916, -0.4217086732387543, 0.908035397529602, 1.1301625967025757, -0.14049820601940155, -4.380346775054932, -0.5344541668891907, -0.1559835970401764, 0.1706596314907074, 0.10677754133939743, 0.9222261905670166, 0.6985965967178345, -0.9942340850830078, -0.2604893445968628, 1.2981246709823608, 0.38863253593444824, 0.062326230108737946, 0.049487024545669556, -1.0326603651046753, 0.2804689109325409, 0.3909286856651306, 0.07215031236410141, 0.01202547550201416, -0.7448256015777588, -1.122037649154663, 0.15856291353702545, 1.3612134456634521, -0.747744619846344, -1.1121026277542114, -0.42209285497665405, 1.4837371110916138, 3.0906126499176025, 0.3895892798900604, -0.6597319841384888, 0.041848260909318924], [-0.9150586128234863, 0.20897841453552246, -0.7837321758270264, -0.36606717109680176, -0.3834809362888336, -0.11945533752441406, 1.131653070449829, 0.2938354015350342, -0.002313709817826748, 0.8704742789268494, 0.45320960879325867, 1.139143705368042, 0.16997425258159637, 0.8166004419326782, 0.6591045260429382, -0.15325096249580383, 0.9348559975624084, 0.8592667579650879, -0.8476309776306152, 0.9049623608589172, -0.6498188376426697, -0.6313992738723755, 0.7991586923599243, 0.0393960066139698, -0.5014077425003052, 0.8337956070899963, -0.7658296823501587, 0.2228495180606842, -0.410153329372406, -0.29723167419433594, -0.3145570158958435, -0.9763979315757751, 0.5323849320411682, -0.7335207462310791, 0.8615400195121765, -0.2637656629085541, -1.1950538158416748, -1.0571303367614746, -0.0971367284655571, -0.9030511975288391, -0.9639658331871033, 0.49335238337516785, -0.44378989934921265, -0.32670286297798157, -0.8232532739639282, 0.9063310623168945, -0.5576593279838562, -0.6293498873710632, 1.1641815900802612, 1.1032278537750244, 0.4609937071800232, 0.6031644940376282, 0.5964269638061523, 0.4172915816307068, 0.46587643027305603, 0.48244088888168335, 0.47272589802742004, -0.6037095785140991, 0.8591675758361816, 0.3518805205821991, -0.42770636081695557, 0.6427121758460999, 0.8169307708740234, -0.7159321904182434], [0.08694297075271606, -0.7724246978759766, -0.1425306797027588, 0.21320761740207672, -1.1116384267807007, -0.9197872877120972, -0.04784421995282173, 1.2480971813201904, 0.6819847226142883, -0.012874091975390911, 1.3773247003555298, -0.33727148175239563, 1.17396080493927, 0.3043661117553711, 0.2928837239742279, -0.49144071340560913, 1.1904819011688232, -0.03855026885867119, 0.09618023037910461, -0.1901969164609909, -0.14360110461711884, 0.548874020576477, 0.379573255777359, 0.5401519536972046, -0.9048283696174622, -0.08978866040706635, 0.04493575543165207, 0.39837324619293213, -0.7327509522438049, -0.39911720156669617, 0.2777321934700012, 0.10011792927980423, -0.01034906879067421, -0.10059167444705963, 0.37131398916244507, 0.689738392829895, -0.15269941091537476, 0.27380338311195374, -0.5540181994438171, -0.8037753105163574, 0.04044971242547035, 1.2361382246017456, 0.08487273752689362, 0.2317381203174591, 0.0010881057241931558, 0.021660035476088524, 0.528499960899353, 0.13931570947170258, 0.9159462451934814, -0.2672138214111328, -0.2064802199602127, 0.6853498816490173, 0.24881204962730408, 0.20242665708065033, -0.5842084884643555, -0.5243528485298157, -0.04054943472146988, 0.03603478893637657, -0.3665080964565277, 0.49566715955734253, -0.92391037940979, 0.6260887384414673, 0.8118463754653931, -0.05136367306113243], [-0.122365303337574, 1.1416840553283691, 0.341869056224823, -1.2352030277252197, 3.558009386062622, 2.65057635307312, -0.6066207885742188, -2.024834632873535, -1.6992958784103394, 0.015284980647265911, -4.070373058319092, -0.0059302919544279575, -1.7819122076034546, 0.10457002371549606, -0.13921713829040527, 1.903496503829956, -1.4944651126861572, 0.17246857285499573, -0.11046314984560013, 1.1075719594955444, 0.1585872322320938, -0.8515594005584717, -0.6335460543632507, 0.20069672167301178, 4.976640701293945, 0.7141276597976685, -0.2238525003194809, -1.299890398979187, 1.7460880279541016, 1.9994513988494873, -0.9530938267707825, -0.555976390838623, 0.6725358963012695, -0.3569975793361664, -1.4709112644195557, -2.0424230098724365, 0.07632748782634735, -0.47865137457847595, 2.1589677333831787, 1.6476106643676758, -0.1514723151922226, -4.079452991485596, -0.308994323015213, -0.814219057559967, 0.40181171894073486, -0.031041864305734634, -0.9239998459815979, -0.9065918326377869, -1.1289689540863037, 0.2960360646247864, 0.5766578912734985, -2.2267847061157227, -0.3856932520866394, 0.19481304287910461, 1.203147292137146, 1.1168503761291504, 0.07700233161449432, -0.5297151207923889, 0.26581496000289917, -1.9756022691726685, 1.6816257238388062, -0.13150431215763092, -1.8586424589157104, -0.3881005346775055], [0.08312445133924484, -0.9899318218231201, -0.3602232336997986, 1.2013400793075562, -0.5403005480766296, -1.2944127321243286, -0.25932082533836365, 0.21852684020996094, 1.1505950689315796, -0.41117361187934875, 1.5179948806762695, 0.13321128487586975, 1.5447752475738525, -0.17629246413707733, -0.017584383487701416, -1.7305604219436646, 0.23883065581321716, 0.19871994853019714, 0.039085548371076584, -0.33458995819091797, -0.21571002900600433, 0.6894814968109131, 0.5404351949691772, -0.3052074909210205, -1.049620509147644, -0.5247041583061218, 0.7397721409797668, 1.0018725395202637, -2.0561575889587402, -0.721366822719574, 0.5622704029083252, 0.17985011637210846, -0.3600272536277771, 0.30201855301856995, -0.40746602416038513, 1.2532821893692017, 0.2372773140668869, 1.618328332901001, -1.4524621963500977, -0.4657374620437622, 0.35267719626426697, 1.1263399124145508, 1.0273969173431396, 0.5240113735198975, -0.13298948109149933, 0.03028169460594654, 1.769439697265625, 0.8524600863456726, 0.15060977637767792, -0.2624271810054779, -0.7433205842971802, 0.4950529932975769, 0.6975896954536438, -0.8055945038795471, -1.260514736175537, -0.6729399561882019, -0.3856036365032196, 0.4494953155517578, -0.29676181077957153, 1.6402925252914429, -0.8942476511001587, 0.1713458001613617, 0.7607542276382446, 0.5718034505844116], [0.9991825819015503, -0.03783406317234039, 0.6437627673149109, 0.6463547348976135, 0.8139171600341797, 0.04908159002661705, -0.865679144859314, -0.7434409260749817, 0.17089511454105377, -1.0367969274520874, -0.27508974075317383, -0.9252707958221436, -0.3873388171195984, -0.886942982673645, -0.7134998440742493, 0.07745181769132614, -0.5882100462913513, -0.8063474893569946, 0.6290087103843689, -0.4059180021286011, 0.5740277171134949, 0.46772706508636475, -0.5772507786750793, -0.7703379392623901, 0.4454262852668762, -1.0528039932250977, 0.8649653196334839, 0.14074453711509705, 0.2304096519947052, 0.49333712458610535, -0.13043397665023804, 0.47046661376953125, -0.5175477862358093, 1.06636381149292, -0.7198493480682373, -0.18865613639354706, 0.923682689666748, 0.8204087615013123, -0.0509897917509079, 0.34078797698020935, 0.826646625995636, -0.5400090217590332, 0.32028117775917053, 0.3661487400531769, 0.9892966747283936, -1.3959286212921143, 0.5038659572601318, 0.5193650126457214, -0.6769475340843201, -1.089687466621399, -0.428374707698822, -0.9797012805938721, -0.7991467714309692, -0.9347445368766785, -0.6632949709892273, -0.30946269631385803, -0.8384841680526733, 0.1646692007780075, -0.622458279132843, -0.22424747049808502, 0.11880138516426086, -0.6405395269393921, -0.8030937910079956, 0.8684251308441162], [0.26204797625541687, -0.194573774933815, 0.026690615341067314, 0.6989701390266418, -0.25818365812301636, 0.4448598325252533, -0.1992952674627304, -0.3384290635585785, 0.11064624041318893, -0.24146075546741486, 0.11224012076854706, -0.2366379350423813, -0.03216061368584633, 0.006273862440139055, 0.16039720177650452, -0.34889596700668335, 0.11228854954242706, -0.0948757529258728, 0.12123962491750717, -0.522236704826355, 0.10104378312826157, 0.8685688972473145, -0.2550716698169708, -0.425493985414505, -0.05800884589552879, -0.8415245413780212, 0.4700124263763428, 1.5201752185821533, -0.21517936885356903, -0.8421881198883057, 0.16395200788974762, -0.10448452830314636, -0.24554966390132904, 0.44318708777427673, -1.2974858283996582, -0.3622696101665497, 0.19921718537807465, 0.6907303929328918, 0.03095773234963417, -0.392492413520813, 0.38379624485969543, 0.6552263498306274, 0.6840818524360657, 0.16150158643722534, 0.356080561876297, -0.2661810517311096, 0.35302773118019104, 0.26935452222824097, -0.05056454986333847, -0.34471288323402405, -0.08897482603788376, -0.001458308775909245, 0.32467085123062134, -0.2693158686161041, -0.1823510229587555, -0.6144413948059082, -0.5077641010284424, 0.7896401882171631, -0.382755845785141, 0.16967658698558807, -0.939911961555481, 0.057312097400426865, 0.19716496765613556, 0.2807140052318573], [-0.7902427315711975, 0.04361401125788689, -0.5299421548843384, -0.6027591228485107, -0.25293847918510437, -0.3804723620414734, 1.0647672414779663, 0.2854888439178467, 0.15658803284168243, 0.7555379271507263, 0.7445417046546936, 0.8993515968322754, 0.3793741762638092, 0.5359781384468079, 0.5975332856178284, 0.005060378462076187, 0.3491286039352417, 1.0145184993743896, -0.07010810077190399, 0.8001624941825867, -0.9406879544258118, -0.5142566561698914, 0.30739840865135193, 0.38313594460487366, -0.7628101110458374, 0.7943868041038513, -0.6619946956634521, -0.2504165768623352, -0.421602338552475, -0.5534146428108215, -0.4064733386039734, -0.941541314125061, 0.6744557619094849, -0.7682437896728516, 0.47816896438598633, 0.47285738587379456, -1.0365188121795654, -0.5267395973205566, -0.19964762032032013, -0.6281700730323792, -0.7491673827171326, 0.1875818520784378, -0.7805533409118652, -0.25718897581100464, -0.800003170967102, 1.1131243705749512, -0.15857641398906708, -0.7594105005264282, 0.5396547913551331, 1.0637500286102295, -0.08806582540273666, 0.5048562288284302, 0.5647357106208801, 0.7443014979362488, 0.0035771732218563557, 0.734018087387085, 0.43548867106437683, -0.6310707330703735, 1.0169312953948975, 0.27723538875579834, -0.22589515149593353, 0.6173334121704102, 0.9963502287864685, -0.49601855874061584], [0.3337785601615906, -0.19833311438560486, 0.03819247707724571, 0.9764620065689087, -0.10920879244804382, 0.10983109474182129, -0.026401683688163757, 0.1848166137933731, 0.18856528401374817, -0.7450338006019592, 0.22287777066230774, -0.18180526793003082, -0.008996519260108471, 0.038324300199747086, -0.05727509409189224, -0.2899167537689209, 0.24566541612148285, 0.10123004019260406, 0.2232152670621872, -0.39360442757606506, 0.033857185393571854, 0.5218876600265503, -0.14138031005859375, -0.9860770106315613, -0.1404722034931183, -0.42216169834136963, 0.21384254097938538, 0.9023497700691223, -0.25599804520606995, -0.30103597044944763, 0.09728330373764038, 0.4581868350505829, -0.25886934995651245, 0.15120148658752441, -0.7171903252601624, -0.15778009593486786, 0.3137822449207306, 0.977867066860199, -0.2686644196510315, -0.18394644558429718, 0.0798521414399147, 0.6174076795578003, 0.4614940285682678, -0.08015336841344833, 0.24104663729667664, -0.2130955457687378, 0.4214766025543213, 0.26656657457351685, 0.13540838658809662, -0.33383044600486755, 0.06118709594011307, 0.2212531566619873, 0.30600041151046753, -0.07774567604064941, 0.3565147817134857, -0.11491110175848007, -0.014219008386135101, 0.3913222849369049, -0.44890961050987244, -0.0853302851319313, -0.5873902440071106, 0.039746128022670746, 0.22270457446575165, 0.22623038291931152], [0.27836787700653076, -0.5447860956192017, 0.2055034190416336, 1.0415923595428467, -0.25605642795562744, -0.24635428190231323, -0.2860656678676605, -0.08364181965589523, 0.3852255940437317, -0.5408855080604553, 0.6147074103355408, -0.08335614949464798, 0.5141856074333191, 0.13698899745941162, 0.13837270438671112, -0.19791656732559204, -0.1978447586297989, -0.2107115238904953, -0.030597520992159843, -0.9253549575805664, 0.08718789368867874, 1.4511221647262573, 0.24515338242053986, -0.529732346534729, -0.5869174599647522, -0.8561414480209351, 0.6283831596374512, 1.0906739234924316, -0.14665578305721283, -0.4356231689453125, 0.15584643185138702, 0.9679359793663025, -0.6243534684181213, -0.09924717992544174, -0.11165209114551544, 0.2012375295162201, 0.014594268053770065, 0.8114423155784607, -0.15363256633281708, -0.67190021276474, 0.3064020574092865, 0.6874713897705078, 0.746852457523346, 0.3373751938343048, 0.21920309960842133, -0.3573879897594452, 0.6808015704154968, 0.8090765476226807, -0.1299775242805481, -0.22510725259780884, -0.2740342617034912, -0.004277742467820644, 0.34125086665153503, -0.4945511221885681, -0.4717960059642792, -0.24624599516391754, -0.14303943514823914, 0.5968192219734192, -0.22290164232254028, 0.42524394392967224, -0.577659547328949, -0.18929548561573029, -0.08985312283039093, 0.45936915278434753], [-0.7872058153152466, 0.39756497740745544, -0.6717014312744141, -0.31903791427612305, -0.15874938666820526, 0.3173874616622925, 0.5455975532531738, 0.36028993129730225, 0.3765035569667816, 0.6614888310432434, 1.7924424409866333, 0.3887653648853302, -0.15714192390441895, 0.6407454609870911, 0.6098921298980713, -0.3590831160545349, 0.5237694382667542, 0.6135314702987671, -0.8577887415885925, -0.2286333590745926, -0.9274868965148926, -0.33423396944999695, 0.8754597902297974, -0.35496777296066284, -1.6133253574371338, 0.4868334233760834, 0.18770894408226013, 0.9381045699119568, -0.26941540837287903, -1.1032581329345703, -0.03636855632066727, -1.5090023279190063, 0.9380607604980469, 0.11280646175146103, 2.0642340183258057, 0.08683516085147858, -0.4720411002635956, 0.4462023377418518, -1.1842533349990845, -1.726614236831665, -0.45164385437965393, 1.6867958307266235, -0.569113552570343, -1.6161726713180542, -0.9303421974182129, 0.4186280369758606, 0.2886066734790802, 0.44831156730651855, 0.8885407447814941, 0.8451133370399475, -0.3848426043987274, 0.720068097114563, 1.2192424535751343, 0.6097724437713623, 0.5643095970153809, -0.17520900070667267, 0.40361839532852173, 0.022539343684911728, 0.5007569193840027, 0.6113240122795105, -1.826195478439331, -0.21882714331150055, 2.857573986053467, -0.45820802450180054], [-0.13698409497737885, -0.1364838033914566, 0.2784724831581116, 0.5480890870094299, -0.018837014213204384, -0.05623312294483185, -0.31112581491470337, 0.15010195970535278, 0.4737507700920105, -0.07401761412620544, 0.30535048246383667, -0.443462997674942, 0.22886653244495392, -0.20254702866077423, 0.004163750912994146, -0.6050166487693787, 0.21172146499156952, -0.0004981185193173587, 0.18158987164497375, -0.3162674903869629, -0.03962145000696182, 0.8819762468338013, -0.25028476119041443, 0.08878063410520554, -0.32800009846687317, 0.029472963884472847, 0.08994151651859283, 0.7561172246932983, -0.3695152699947357, -0.2510048449039459, 0.5061672925949097, 0.2469872236251831, 0.00552947586402297, 0.1319497525691986, -0.19222919642925262, -0.2969169020652771, -0.08930596709251404, 0.3990660309791565, 0.042113691568374634, -0.20329077541828156, 0.011343629099428654, 0.20992565155029297, 0.3881862461566925, -0.15039706230163574, 0.08996612578630447, -0.14483407139778137, 0.41786837577819824, 0.36853331327438354, 0.42191338539123535, -0.256761759519577, 0.08787929266691208, 0.2887275516986847, 0.1307513415813446, 0.044495001435279846, 0.011213721707463264, -0.35436198115348816, -0.061079077422618866, 0.587582528591156, -0.13369841873645782, 0.17592544853687286, -0.5507954955101013, -0.5132555961608887, 0.0429006926715374, 0.23554463684558868], [0.44042181968688965, 0.6840986609458923, -0.4828231930732727, -2.3498921394348145, -0.3606099784374237, -1.670523762702942, -0.5091482400894165, 0.43420839309692383, -1.09622061252594, 0.23048679530620575, -0.6906635165214539, -0.0934160053730011, 1.0989782810211182, -1.0490469932556152, 0.05272773280739784, 0.021693112328648567, 0.3314916491508484, -1.0426850318908691, 0.8388769030570984, 1.6226470470428467, -0.3823395371437073, -1.2559149265289307, -0.8560292720794678, 1.6331446170806885, -0.1926441490650177, -0.9836899042129517, -1.078366756439209, -3.646735906600952, -1.0144522190093994, 2.2812821865081787, -0.10785796493291855, 0.8613227009773254, 0.8331881165504456, -0.0086074098944664, -4.2055511474609375, -0.1267111748456955, 0.15105946362018585, 0.30941149592399597, 0.4839422106742859, 0.7707191705703735, 1.0822482109069824, -1.1413873434066772, 0.1417994350194931, 1.3254204988479614, 0.282063364982605, -0.01312985923141241, 0.3681464195251465, -1.192430019378662, 0.37803032994270325, -0.034386709332466125, 0.32136720418930054, 0.10185515135526657, -0.7439109683036804, -1.7595568895339966, 0.2727033793926239, 1.4400312900543213, -0.47929033637046814, -0.9892702102661133, -0.8238357901573181, 0.9852839708328247, 2.938619613647461, 0.462666779756546, -0.5428149104118347, -0.10765064507722855], [-0.10864082723855972, 1.3886595964431763, 0.10618098080158234, -1.6154637336730957, 2.747863531112671, 0.8319103717803955, -0.5190310478210449, -2.221219062805176, -1.4720920324325562, 0.19756467640399933, -3.124330759048462, 0.06443029642105103, -0.4534788131713867, -0.23147840797901154, 0.2298327535390854, 1.0683560371398926, -1.2508224248886108, 0.03155912458896637, 0.24353735148906708, 0.6468458771705627, 0.1931019425392151, -1.0338178873062134, -1.291003942489624, 0.6700226664543152, 3.948373556137085, 0.22055736184120178, -0.5631601810455322, -2.2810707092285156, 0.7117636203765869, 2.341730833053589, -0.7953999042510986, -0.31933894753456116, 1.1930146217346191, -0.06691207736730576, -1.774725079536438, -1.3773361444473267, 0.33083561062812805, -0.1532706618309021, 1.63680100440979, 1.5619783401489258, 0.19076868891716003, -3.9339680671691895, -0.41406822204589844, -0.49913737177848816, 0.6388038396835327, -0.12852086126804352, -0.8433271050453186, -1.0085666179656982, -0.7768092751502991, 0.17478226125240326, 0.818011999130249, -1.740991473197937, -0.8578744530677795, -0.3408103287220001, 1.31312894821167, 1.0520626306533813, -0.12279760092496872, -0.9423555731773376, -0.12355635315179825, -0.9232646226882935, 1.6241811513900757, -0.04088803753256798, -1.700739860534668, 0.12246773391962051], [0.7488631010055542, -0.604874849319458, 0.8360869288444519, 0.28967511653900146, 0.014576532877981663, -0.44455963373184204, -0.3829355835914612, -0.5302489995956421, -0.17030298709869385, -0.5890716910362244, -1.0813007354736328, -0.7793743014335632, -0.08604156970977783, -0.8596150875091553, -0.3304251432418823, 0.33446770906448364, -0.11470083147287369, -0.597872793674469, 0.6972615718841553, 0.02768666483461857, 0.5440686941146851, 0.1754566878080368, -0.7554836869239807, 0.0772678554058075, 1.4677515029907227, -0.49304327368736267, 0.24184761941432953, -0.6304488778114319, 0.1049281507730484, 0.7751851677894592, 0.4378640651702881, 1.4255130290985107, -0.6933512091636658, 0.49052804708480835, -1.4537248611450195, 0.3715722858905792, 1.077055811882019, -0.15300261974334717, 1.0551245212554932, 1.0427097082138062, 0.2898188829421997, -1.4041774272918701, 0.6882537603378296, 1.3637245893478394, 1.228320598602295, -0.41185465455055237, 0.44741758704185486, 0.1634826362133026, -0.8169381022453308, -0.7129167914390564, 0.49305757880210876, -0.8170909285545349, -1.1190534830093384, -0.3182618319988251, -0.538594663143158, -0.17067423462867737, -0.5558251142501831, 0.37141233682632446, -0.41438600420951843, -0.046385508030653, 1.4114742279052734, -0.18213887512683868, -2.2621049880981445, 0.5623394250869751], [-0.13037307560443878, 0.28847602009773254, -0.02830287255346775, -0.4805656671524048, 0.41524943709373474, -0.014205360785126686, 0.17275555431842804, -0.14400295913219452, -0.4474485218524933, 0.16393586993217468, -0.5191436409950256, 0.3422406315803528, -0.02145807072520256, 0.32502466440200806, -0.20411910116672516, 0.34551331400871277, -0.18975108861923218, -0.09282618016004562, -0.08176211267709732, 0.38494473695755005, -0.06554631143808365, -0.2844145596027374, -0.22673746943473816, 0.14615467190742493, 0.6907094120979309, 0.42056670784950256, -0.06829516589641571, -0.7795743346214294, 0.5331464409828186, 0.3277459740638733, 0.00899594184011221, -0.7709388732910156, 0.39921286702156067, -0.13386231660842896, 0.514180064201355, 0.09301949292421341, -0.20789805054664612, -0.08768288046121597, 0.629214882850647, 0.7458407282829285, 0.30145683884620667, -0.6313685774803162, -0.2414522022008896, -0.4753802716732025, 0.11117138713598251, 0.3085917532444, -0.5897610783576965, -0.1440528929233551, 0.16223686933517456, 0.021804580464959145, 0.04332815483212471, -0.09321755170822144, -0.3634837865829468, 0.3262956142425537, 0.04156298190355301, 0.020617153495550156, 0.03302273526787758, -0.021175317466259003, 0.35262343287467957, -0.03292815387248993, 0.47555848956108093, 0.09614197909832001, -0.5630021095275879, 0.133871391415596], [0.5320488810539246, -0.1206672415137291, 0.3369039297103882, 0.38785284757614136, 0.3044518232345581, 0.6021043658256531, -0.7788558006286621, -0.1539185494184494, -0.09045462310314178, -0.4258570075035095, -0.22516576945781708, -0.12343566864728928, 0.01178482174873352, -0.27616190910339355, -0.007179818581789732, 0.29893583059310913, -0.1941525787115097, -0.20896108448505402, 0.2498776912689209, -0.5619165897369385, 0.16400939226150513, 0.31364408135414124, -0.8714396953582764, -0.5858428478240967, 0.12240011245012283, -0.889014720916748, 0.8034652471542358, 1.1797081232070923, 0.23458270728588104, 0.19982218742370605, 0.4757078289985657, 0.1387813240289688, -0.28484147787094116, 0.946516752243042, -2.1530113220214844, -1.0686479806900024, 0.6365421414375305, 1.064079999923706, 0.5541694164276123, 0.0032770971301943064, 0.6557660698890686, 0.19530032575130463, 0.9443004131317139, -0.3653070330619812, 0.7769412994384766, -0.6701310276985168, -0.03856038674712181, 0.4584113657474518, -0.34693121910095215, -0.19671283662319183, -0.4267280697822571, -0.3117032051086426, -0.5332849025726318, -0.8732577562332153, 0.7080448269844055, -0.8792629241943359, -0.4546082615852356, 0.4611000120639801, -0.346549391746521, -0.2562524974346161, -0.7255491614341736, -0.7764613032341003, -0.33893823623657227, -0.009569769725203514], [0.922482967376709, -0.284325510263443, 0.8234169483184814, 0.33290621638298035, 0.6256380677223206, -0.15046066045761108, -0.9519956111907959, -0.9886924028396606, -0.1260448694229126, -1.1702768802642822, 0.019867824390530586, -0.7788190245628357, -0.4527308940887451, -1.008677363395691, -0.9915550947189331, 0.22482895851135254, -0.6156468391418457, -0.9480694532394409, 0.8005035519599915, -0.5092267990112305, 1.0539400577545166, 0.2860960066318512, -0.30613723397254944, -0.09284359216690063, 0.7275658249855042, -0.8257486820220947, 0.5163512825965881, -0.2129625380039215, -0.14172030985355377, 0.3733885884284973, 0.4265136420726776, 0.6089821457862854, -0.43874824047088623, 0.9294900298118591, -0.8216536045074463, -0.0044934251345694065, 1.024268627166748, 0.7860573530197144, 0.08683198690414429, 0.613514244556427, 0.9157306551933289, -0.38176125288009644, 0.6290843486785889, 0.826374888420105, 0.9525479674339294, -1.022517204284668, 0.18146146833896637, 0.4266318380832672, -0.806125819683075, -0.9696594476699829, -0.5723590850830078, -1.0019645690917969, -0.8618029952049255, -0.7117690443992615, -0.1534229964017868, -0.14307798445224762, -0.3123335540294647, 0.31135204434394836, -0.810419499874115, 0.018211161717772484, -0.051913488656282425, -0.5634064674377441, -0.8238831162452698, 0.8225082755088806], [-1.1416935920715332, 0.41003575921058655, -0.5700827240943909, -0.6852537393569946, -0.5882574915885925, -0.21998582780361176, 0.9326330423355103, 0.8575913906097412, 0.005048761144280434, 0.7772912979125977, 0.14277663826942444, 0.7474793791770935, 0.0027538733556866646, 0.9188491702079773, 0.9491221904754639, -0.4540211260318756, 0.7173309326171875, 0.7911855578422546, -0.3812820613384247, 0.8459470272064209, -0.4150645136833191, -0.37043043971061707, 0.7658244967460632, 0.41500580310821533, -0.5375613570213318, 0.6111158132553101, -0.33516964316368103, 0.10229617357254028, 0.1574241667985916, -0.5054901242256165, -0.22800199687480927, -0.914303719997406, 0.4987150728702545, -0.803093671798706, 0.8402783274650574, -0.08447446674108505, -1.1384823322296143, -0.5430586338043213, -0.2237325757741928, -0.6198691129684448, -0.7495488524436951, 0.540838360786438, -0.5603846907615662, -0.557860255241394, -0.7021685838699341, 1.1148124933242798, -0.3706173896789551, -0.9022437930107117, 0.5394943952560425, 1.2497773170471191, 0.6946408152580261, 0.928838849067688, 0.785053551197052, 0.3978153169155121, 0.5385901927947998, 0.18070632219314575, 0.7686640024185181, -0.4565378427505493, 1.3448129892349243, 0.3332059383392334, -0.08506569266319275, 0.6719163060188293, 1.0547221899032593, -0.5679439306259155], [-0.45525798201560974, -0.6094397306442261, 0.4961097836494446, 2.2557740211486816, 0.4734976291656494, 1.3714768886566162, 0.3924696743488312, -0.20307107269763947, 1.4630178213119507, -0.07578732073307037, 0.6972922682762146, 0.5854913592338562, -1.313953161239624, 1.1275733709335327, 0.17105861008167267, 0.152536541223526, -0.4149828851222992, 0.46501168608665466, -0.5899829864501953, -1.2543292045593262, 0.12905235588550568, 1.1597893238067627, 1.0765056610107422, -1.3733882904052734, -0.09105729311704636, 1.1569433212280273, 0.7551177144050598, 3.91630482673645, 1.0951652526855469, -2.661468505859375, 0.0318550206720829, -1.121780276298523, -0.6746410131454468, 0.24342380464076996, 4.238493919372559, 0.23703864216804504, -0.2207348793745041, -0.023625224828720093, -0.44070327281951904, -0.6397020220756531, -1.1067118644714355, 1.583319902420044, -0.2473805993795395, -1.040386438369751, 0.005760700907558203, -0.03238648548722267, -0.20070992410182953, 1.343621015548706, -0.3365005552768707, 0.061599116772413254, 0.25160181522369385, -0.23564788699150085, 0.9221763014793396, 1.505057454109192, -0.12427341192960739, -1.4322490692138672, 0.5493584275245667, 1.03126859664917, 0.2500898838043213, -1.5228215456008911, -2.649646282196045, -0.7760751247406006, 0.47525155544281006, -0.018496764823794365], [-0.5719146132469177, -0.4714340567588806, 0.12660562992095947, 2.351581573486328, 0.29239678382873535, 1.6031581163406372, 0.49779075384140015, -0.2210903763771057, 1.4238011837005615, -0.10304179042577744, 0.7239906191825867, 0.39163365960121155, -1.388979434967041, 0.6475962996482849, -0.1107521653175354, 0.23411090672016144, -0.2981368601322174, 0.9267017245292664, -0.717199981212616, -1.7097338438034058, 0.5638355016708374, 1.3043254613876343, 1.1474411487579346, -1.5267643928527832, 0.247280091047287, 1.0732908248901367, 1.3297067880630493, 4.025506019592285, 1.039050579071045, -2.569566249847412, 0.05592360347509384, -0.9530969262123108, -1.0808241367340088, 0.050857119262218475, 4.263038158416748, 0.08362199366092682, 0.11930542439222336, -0.26999616622924805, -0.14777572453022003, -1.0520434379577637, -0.49207234382629395, 1.6258620023727417, -0.24976585805416107, -1.6142213344573975, -0.16071870923042297, 0.20038586854934692, -0.0011129799531772733, 1.224845290184021, -0.5835195183753967, -0.2518810033798218, 0.007119941059499979, 0.23203139007091522, 0.7951304316520691, 1.6144129037857056, -0.10762061178684235, -1.4045277833938599, 0.6682684421539307, 1.047908067703247, 0.2457435578107834, -1.1264804601669312, -2.3772332668304443, -0.837875485420227, 0.4313698709011078, -0.019599834457039833], [-0.2763918340206146, 0.21631357073783875, -0.2975386381149292, -0.9718426465988159, 0.22642765939235687, -0.28091976046562195, -0.11983843147754669, 0.05449593812227249, -0.31836289167404175, 0.17250323295593262, -0.17548036575317383, 0.2785995304584503, -0.27874496579170227, -0.10944325476884842, -0.08900120854377747, 0.20108267664909363, 0.0907706543803215, 0.15920530259609222, -0.3529592454433441, 0.1303943544626236, -0.25768381357192993, -0.822452187538147, 0.2476433962583542, 0.5679015517234802, -2.8542595828184858e-05, 0.625156819820404, -0.8245928287506104, -1.1824125051498413, 0.3287544250488281, 0.4529762864112854, 0.10545927286148071, -0.20300789177417755, 0.6116301417350769, -0.5844765901565552, 0.6637268662452698, 0.05579937994480133, -0.29229506850242615, -0.8310885429382324, 0.052476666867733, 0.1971447765827179, -0.002361407969146967, -0.5495389103889465, -0.8367868661880493, -0.18979565799236298, -0.4410487711429596, 0.18193337321281433, -0.34252190589904785, -0.5736473798751831, 0.24336770176887512, 0.33772993087768555, 0.4609609842300415, -0.08558321744203568, -0.029901862144470215, 0.786192774772644, 0.28680041432380676, 0.09687734395265579, 0.0772179663181305, -0.161550372838974, 0.48031264543533325, -0.39231929183006287, 0.876290500164032, 0.5614030957221985, 0.01368313655257225, 0.00878843292593956], [0.2430570274591446, -0.5565193295478821, -0.1261235624551773, 0.9340477585792542, -0.48150524497032166, 0.06362747400999069, -0.21485745906829834, 0.20027244091033936, 0.19099408388137817, -0.44871196150779724, 0.08320531994104385, -0.03659024462103844, 0.4582939147949219, 0.02810763567686081, 0.23008692264556885, -0.09310413897037506, 0.32468467950820923, -0.018640555441379547, 0.19461289048194885, -0.4599120318889618, -0.1736680120229721, 0.2402547299861908, 0.14539897441864014, -0.1785498708486557, -0.5621551871299744, -0.21893127262592316, 0.13607455790042877, 0.25162383913993835, -0.4147358536720276, -0.7456992864608765, 0.05111667141318321, 0.2091173529624939, -0.6178158521652222, 0.12200219184160233, -0.3270142078399658, -0.40388619899749756, 0.059720877557992935, 0.007473002653568983, -0.4214376211166382, -0.5665756464004517, 0.06371902674436569, 0.5156176090240479, 0.3901139497756958, 0.7006595730781555, 0.017616011202335358, -0.11464520543813705, 0.6413729786872864, 0.14085884392261505, 0.19119085371494293, -0.15594375133514404, 0.55503249168396, 0.30432775616645813, -0.043731704354286194, 0.0896412581205368, -0.21423807740211487, 0.13499145209789276, 0.45610347390174866, -0.02559339441359043, -0.10414331406354904, 0.1924898624420166, -0.4104291498661041, -0.10148444771766663, -0.06732266396284103, -0.12940505146980286], [-0.5584470629692078, -0.9903109073638916, 0.06505413353443146, 2.3061728477478027, 0.5581694841384888, 1.744690179824829, 0.6201125979423523, -0.3378787636756897, 1.2147250175476074, -0.34321969747543335, 0.545753538608551, 0.612136721611023, -1.3251583576202393, 0.7619235515594482, -0.12458962947130203, -0.03789706900715828, -0.4691987633705139, 0.9010897874832153, -0.657475471496582, -1.2201311588287354, 0.4999285638332367, 1.3030987977981567, 0.6383004784584045, -1.2716392278671265, -0.1381738781929016, 1.1440445184707642, 1.1256654262542725, 4.360052108764648, 0.9008060693740845, -2.5665132999420166, -0.055635929107666016, -0.9134506583213806, -0.8216750621795654, -0.3066886365413666, 4.644062519073486, 0.461210161447525, 0.1688232719898224, 0.042359866201877594, -0.1766301989555359, -1.2146563529968262, -0.9151090383529663, 1.2332333326339722, -0.12128917127847672, -1.239848017692566, -0.16656282544136047, 0.16028381884098053, -0.23122364282608032, 1.0158991813659668, -0.2193586230278015, 0.1615493893623352, 0.05956553667783737, -0.19710703194141388, 0.8012521862983704, 1.7344717979431152, -0.11366477608680725, -1.3080079555511475, 0.6842005252838135, 0.9480584859848022, 0.4418937563896179, -1.2620905637741089, -2.9188148975372314, -0.6202682256698608, 0.39909014105796814, 0.24478299915790558], [0.11401217430830002, 0.06703687459230423, 0.25825589895248413, -0.7276598811149597, 0.730135977268219, 0.18643012642860413, 0.2988055646419525, -0.3572036623954773, -0.42917224764823914, 0.04289538413286209, -0.3755445182323456, 0.0408245325088501, -0.44753673672676086, 0.07264245301485062, 0.018667539581656456, -0.20463627576828003, -0.2711137533187866, 0.06042315810918808, -0.14381040632724762, 0.19519160687923431, 0.17857687175273895, -0.37060660123825073, -0.15792204439640045, -0.08724107593297958, 0.49397745728492737, -0.0011751641286537051, -0.06964287906885147, -0.3158039450645447, -0.05872805789113045, 0.03589748963713646, 0.08784294873476028, -0.08825402706861496, 0.3863774538040161, 0.004179170820862055, 0.6117115020751953, 0.0061041368171572685, 0.00046608279808424413, -0.05834907665848732, 0.134496808052063, 0.2694878876209259, 0.26954421401023865, -0.8316412568092346, -0.21933168172836304, -0.4748854637145996, 0.155767023563385, 0.1831398606300354, -0.48570334911346436, 0.07603052258491516, -0.3265748918056488, 0.11466367542743683, -0.12247298657894135, -0.19891104102134705, -0.11955505609512329, -0.13720780611038208, -0.34100374579429626, 0.1592102199792862, 0.29308709502220154, -0.23800989985466003, 0.09488049894571304, -0.4907778203487396, 0.8394103050231934, -0.030475543811917305, -0.37655171751976013, 0.03292830288410187], [-0.22512172162532806, 0.14176277816295624, 0.0348581038415432, -1.0777674913406372, 0.3608980178833008, 0.11036364734172821, 0.11180130392313004, -0.459302693605423, -0.054633818566799164, 0.1661515086889267, -0.49472665786743164, -0.11983495205640793, 0.06574127823114395, -0.10702013224363327, -0.4118419289588928, 0.40711426734924316, 0.011056546121835709, -0.12497428059577942, -0.1721615344285965, 0.5712926387786865, -0.08568017929792404, -0.410741925239563, -0.07457481324672699, -0.08041823655366898, 0.32485339045524597, 0.044796884059906006, -0.01823187619447708, -0.6056102514266968, 0.7621431350708008, 0.3589287996292114, -0.258055180311203, -0.3519482910633087, 0.42041975259780884, -0.28117242455482483, 0.17279571294784546, -0.092284195125103, 0.23981612920761108, -0.35119330883026123, 0.22811457514762878, 0.4392034411430359, 0.05789151042699814, -0.5204200148582458, -0.45859190821647644, -0.3170662224292755, -0.2541448771953583, 0.2140626758337021, -0.7035034894943237, -0.39515167474746704, -0.13045859336853027, 0.5131576061248779, 0.1887298822402954, -0.2638997435569763, -0.14111444354057312, 0.31234344840049744, -0.01856520026922226, 0.5105050802230835, 0.2220533937215805, -0.2279323935508728, 0.0398998036980629, -0.20421577990055084, 0.5177746415138245, -0.20058776438236237, -0.03876720368862152, -0.03603636100888252], [-0.2070673704147339, -0.9081515669822693, 0.28908514976501465, 2.240220785140991, 0.840975821018219, 1.5967596769332886, 0.8614831566810608, -0.39898425340652466, 1.2492504119873047, 0.1009834036231041, 0.8668362498283386, 0.3857138156890869, -1.333549976348877, 0.944687008857727, -0.04538276791572571, -0.04658083990216255, -0.23078030347824097, 0.8999819755554199, -0.5227446556091309, -1.7677274942398071, 0.3709923028945923, 1.311379075050354, 0.9711514711380005, -1.8487300872802734, -0.13953402638435364, 1.1085455417633057, 0.8050276637077332, 4.007073879241943, 1.6042025089263916, -2.7386574745178223, 0.37282317876815796, -1.0904234647750854, -0.9829671382904053, -0.09808243811130524, 4.853858947753906, 0.20803335309028625, 0.06779330223798752, -0.1313847154378891, -0.11708644777536392, -0.8315050601959229, -0.7396175861358643, 1.5497456789016724, -0.051401522010564804, -1.0939244031906128, 0.0005314784357324243, 0.19532649219036102, -0.2501116693019867, 0.7564558982849121, -0.5156002640724182, -0.12431348860263824, -0.2841659188270569, -0.11948627978563309, 0.7615933418273926, 1.4418818950653076, -0.28005778789520264, -1.3612658977508545, 0.6200073957443237, 1.1504991054534912, 0.39972421526908875, -1.0880669355392456, -2.709702491760254, -0.6716097593307495, 0.5839545726776123, -0.2962559759616852], [0.13958963751792908, -0.3808896541595459, -0.005099122412502766, 0.39528679847717285, -0.09438163042068481, 0.09271665662527084, -0.5029117465019226, 0.04048371687531471, 0.2654612362384796, -0.10261794179677963, 0.355560302734375, -0.3357682526111603, 0.28926271200180054, -0.17902222275733948, 0.020914746448397636, -0.47027361392974854, -0.0019071003189310431, -0.27212971448898315, 0.2949565351009369, -0.6613967418670654, 0.08090178668498993, 0.31099581718444824, -0.0693667009472847, -0.5061102509498596, -0.13132980465888977, -0.310038298368454, 0.5125303268432617, 0.9378654956817627, -0.4120270907878876, -0.35010096430778503, -0.05672193318605423, -0.1788131594657898, -0.31630635261535645, 0.3029005527496338, -0.5838461518287659, 0.21570906043052673, 0.009270912036299706, 0.7355470657348633, -0.053614839911460876, -0.47522300481796265, -0.11336062103509903, 0.6257445216178894, 0.4759490191936493, -0.2123597115278244, -0.10613246262073517, -0.40055182576179504, 0.263282835483551, 0.2491230070590973, 0.19485510885715485, -0.14990739524364471, -0.046950049698352814, 0.21806108951568604, 0.07088039070367813, -0.23655100166797638, 0.1357204020023346, -0.7718412280082703, -0.12305176258087158, 0.7988651990890503, -0.09159810096025467, 0.0957435742020607, -0.8556909561157227, -0.11406516283750534, -0.3954942226409912, -0.3432336449623108], [-0.3806142807006836, -1.0254697799682617, 0.05140914395451546, 1.3173869848251343, -2.710771322250366, -1.2060678005218506, 0.41526344418525696, 1.8475195169448853, 1.0868579149246216, 0.510984480381012, 2.4066734313964844, 0.22512318193912506, 1.204318642616272, -0.07828903943300247, 0.15223662555217743, -0.9718613028526306, 1.7665855884552002, 0.07575227320194244, 0.2224268913269043, -0.6276634931564331, -0.12035012990236282, 0.720821738243103, 0.79441237449646, -0.046112049371004105, -3.5347626209259033, -0.38573867082595825, 0.2400786131620407, 0.8945724964141846, -0.9732961654663086, -1.5446799993515015, 0.30898359417915344, 0.5786059498786926, -0.309773325920105, -0.13621221482753754, 0.9015586972236633, 1.093031883239746, -0.09501194208860397, 0.365853875875473, -1.499789834022522, -1.1730821132659912, -0.03127013146877289, 2.9299652576446533, 0.1954934000968933, 0.6444365382194519, -0.48494401574134827, -0.1442372351884842, 0.8584365248680115, 0.694733202457428, 1.0845985412597656, -0.05385274440050125, -0.4613642990589142, 1.8273345232009888, 0.6189357042312622, -0.27587398886680603, -0.8348324298858643, -0.6169044971466064, 0.01775042898952961, 0.7775514721870422, -0.11031704396009445, 1.0912511348724365, -0.8814356327056885, 0.6779153943061829, 1.2454887628555298, -0.036129407584667206], [-1.0825903415679932, 0.2662329077720642, -0.5821572542190552, -0.6163753271102905, -0.051326632499694824, 0.5850884318351746, 0.3236473500728607, 0.42170026898384094, 0.2410716414451599, 0.4813190996646881, 1.3024641275405884, 0.7971369624137878, 0.02715020626783371, 0.5173126459121704, 0.8801950812339783, -0.36042776703834534, 0.43857789039611816, 0.8775229454040527, -1.0729392766952515, 0.3163890242576599, -0.819657027721405, -0.512000322341919, 0.5276246666908264, -0.14126573503017426, -1.5550832748413086, 0.2535775303840637, -0.1530451476573944, 0.5920915603637695, -0.22345228493213654, -0.7104331254959106, -0.4189452826976776, -1.1418479681015015, 0.6586604118347168, -0.432380735874176, 1.4644464254379272, -0.027699865400791168, -1.0474320650100708, 0.1042337492108345, -0.4580242335796356, -1.2368112802505493, -0.3137524425983429, 1.82969331741333, -0.9738677740097046, -1.0829249620437622, -0.8639938831329346, 0.5509577393531799, -0.21414384245872498, 0.26391106843948364, 0.83942711353302, 0.2293577641248703, -0.388510525226593, 0.7376608848571777, 1.1555277109146118, 0.3480812907218933, 0.5310869812965393, -0.2784139811992645, 0.7513251900672913, 0.3063768744468689, 0.6501383185386658, 0.43311765789985657, -1.480284571647644, -0.2681950032711029, 2.872044801712036, -0.5978604555130005], [-0.06038865074515343, -0.6948985457420349, 0.6045427918434143, 2.3856735229492188, 0.45081669092178345, 1.522329330444336, 0.8804502487182617, -0.5766991376876831, 1.1652042865753174, -0.18952783942222595, 0.46180248260498047, 0.12606008350849152, -0.9711574912071228, 0.9901758432388306, -0.07263579219579697, -0.1133660301566124, -0.0625697672367096, 0.9200893044471741, -0.7802504897117615, -1.5221682786941528, 0.35549619793891907, 1.3402267694473267, 1.0818554162979126, -1.2414418458938599, 0.23562152683734894, 1.0274580717086792, 1.0464013814926147, 4.283207893371582, 1.202146053314209, -2.764202833175659, 0.3088798522949219, -1.2510247230529785, -1.1298350095748901, -0.09925828874111176, 4.21173620223999, 0.38958048820495605, -0.21041704714298248, -0.12253803014755249, -0.13253483176231384, -0.9382639527320862, -0.9609549045562744, 1.3976094722747803, -0.2200314998626709, -1.2969375848770142, -0.6581159830093384, 0.23521634936332703, -0.14758427441120148, 1.18890380859375, -0.46506786346435547, -0.03846064209938049, 0.02297818288207054, -0.4436369240283966, 0.5951741933822632, 1.155337929725647, 0.08257762342691422, -1.3210930824279785, 0.6681460738182068, 1.052325963973999, 0.31334900856018066, -1.4764896631240845, -2.5294883251190186, -0.6615222692489624, 0.5436830520629883, 0.08773968368768692], [0.25405535101890564, -0.6229965090751648, -0.029610084369778633, 0.7932113409042358, -0.4437752664089203, -0.12370897084474564, -0.0729752853512764, 0.1681724637746811, 0.21494175493717194, -0.06076918914914131, 0.4194248616695404, -0.1657899171113968, -0.041935116052627563, -0.08509239554405212, 0.10290471464395523, -0.08932780474424362, -0.2879590392112732, 0.24594557285308838, 0.17690765857696533, -0.28201690316200256, -0.3801688551902771, 0.5257530212402344, 0.26455894112586975, -0.19916611909866333, -0.2571689784526825, -0.5562442541122437, 0.6898616552352905, 0.7814379334449768, -0.20948335528373718, -0.3912509083747864, 0.11495070904493332, 0.4831358790397644, -0.30993926525115967, 0.46487295627593994, -0.16654247045516968, -0.1672528237104416, 0.1527368277311325, -0.035660795867443085, -0.31700098514556885, -0.2311476469039917, 0.22282709181308746, 0.6636732816696167, 0.4160352349281311, 0.42862096428871155, 0.011809919029474258, -0.24913522601127625, 0.55686354637146, 0.17204034328460693, 0.28879398107528687, -0.29597511887550354, 0.09928758442401886, 0.39779019355773926, -0.02514837309718132, -0.257375031709671, -0.1108984723687172, 0.14739233255386353, 0.08995340764522552, 0.535826563835144, -0.2741408050060272, -0.19535966217517853, -0.6900826096534729, 0.15120461583137512, 0.19019900262355804, 0.43922340869903564], [-0.46125900745391846, 0.09038353711366653, -0.7698864936828613, -0.39700350165367126, -0.6063905358314514, -0.5327439308166504, 0.8371385931968689, 0.44273480772972107, -0.05621586740016937, 0.7014215588569641, 0.6238465309143066, 0.9445255398750305, 0.27254459261894226, 0.49335169792175293, 0.38794031739234924, -0.379293292760849, 0.5180505514144897, 0.24809248745441437, -0.8205263614654541, 0.812667965888977, -0.5183576941490173, -0.34043461084365845, 0.25333359837532043, 0.7577935457229614, -0.34136974811553955, 0.9714410901069641, -0.7105709314346313, -0.7717383503913879, 0.06979203969240189, -0.22387102246284485, -0.4629913568496704, -0.3683878779411316, 1.1282358169555664, -0.9870012402534485, 1.5370044708251953, 0.48877662420272827, -0.7971158027648926, -0.9227961897850037, -0.5853962302207947, -0.3652489483356476, -0.932142972946167, 0.4318736493587494, -0.6747223138809204, -0.5029059648513794, -1.0248708724975586, 1.05517578125, 0.05498657748103142, -0.6826736330986023, 0.5168957710266113, 0.8408856987953186, 0.26700302958488464, 0.5427206158638, 0.34482982754707336, 0.7004481554031372, -0.22762246429920197, 0.46919429302215576, 0.7435539364814758, -0.3639826476573944, 0.803328812122345, 0.26842379570007324, 0.032516952604055405, 0.66722571849823, 0.9823864698410034, -0.6356180906295776], [0.5648349523544312, 0.19684267044067383, 0.3183382749557495, 0.43184250593185425, 0.29331544041633606, 0.30490392446517944, -0.6411277651786804, 0.017398828640580177, -0.33549803495407104, -0.835403323173523, -0.26569417119026184, -0.8267593383789062, -0.22645342350006104, -0.48450347781181335, -0.12868747115135193, 0.16622070968151093, -0.4352738857269287, -0.6247187852859497, 0.5743414759635925, -1.041906476020813, 0.8742226958274841, 0.5652429461479187, -0.26055774092674255, -0.6112250089645386, 0.11678408086299896, -0.669082760810852, 1.057418704032898, 0.5506797432899475, 0.11138850450515747, 0.07223338633775711, 0.08941533416509628, 0.7235870361328125, -0.36525121331214905, 0.6319122910499573, -1.2629365921020508, -0.5626354217529297, 0.668803334236145, 0.012583823874592781, 0.4930655360221863, 0.5655636787414551, 0.6478710174560547, -0.411941796541214, 0.33167436718940735, 0.33949005603790283, 0.8947281241416931, -0.5506378412246704, 0.4055638015270233, 0.6224851608276367, -0.23071831464767456, -0.6327183246612549, 0.05618923902511597, -0.7486720085144043, -0.6257535815238953, -0.5298316478729248, 0.36047399044036865, -0.6781800985336304, -0.4136538505554199, 0.7176468968391418, -0.8250963091850281, -0.5031121969223022, -0.1591595560312271, -0.7578023672103882, -0.6171858906745911, 0.12129216641187668], [-0.8759750127792358, 0.053149934858083725, -0.8995735049247742, 0.21656718850135803, 0.07791101932525635, 0.5332031846046448, 0.12160447984933853, -0.056968189775943756, 0.23502366244792938, 0.7842149138450623, 1.5814733505249023, 0.3996981978416443, 0.016123302280902863, 1.1131716966629028, 0.06398405134677887, -0.5577003955841064, 0.18709994852542877, 0.5733754634857178, -0.566161572933197, 0.02033834345638752, -0.6680824756622314, -0.5626509189605713, 0.4518521726131439, -0.3175133466720581, -1.3911315202713013, 0.35945531725883484, 0.047274149954319, 0.38479509949684143, 0.09514427930116653, -0.33525532484054565, -0.3363904058933258, -1.4301769733428955, 1.0466102361679077, 0.10944530367851257, 0.925320565700531, -0.03594507649540901, -0.886191189289093, 0.3292831480503082, -1.1034343242645264, -1.7549329996109009, -0.16072621941566467, 1.2880795001983643, -0.6851666569709778, -1.2607741355895996, -0.6991555690765381, 0.6711302995681763, -0.08154715597629547, 0.18420493602752686, 0.6549684405326843, 0.3177863657474518, -0.4008694589138031, 0.3197071850299835, 1.1423262357711792, 0.15168099105358124, 0.6273890733718872, -0.014331957325339317, 0.29509714245796204, -0.19105203449726105, 0.6291793584823608, 0.1322299987077713, -1.4825719594955444, -0.28485697507858276, 2.5022521018981934, -0.6804945468902588], [0.2374967783689499, 0.7191792130470276, -0.07310688495635986, -2.360974073410034, -0.25682440400123596, -1.6695865392684937, -0.39987829327583313, 0.6531261801719666, -1.0330086946487427, -0.1701376736164093, -0.5594046115875244, -0.2911458909511566, 1.535807490348816, -1.2425899505615234, 0.050509773194789886, -0.40835875272750854, 0.31738486886024475, -0.9075105786323547, 0.535657525062561, 1.3005335330963135, -0.740558922290802, -1.7032328844070435, -1.1961674690246582, 2.0550968647003174, -0.17134234309196472, -1.0323922634124756, -1.0308219194412231, -4.153519630432129, -0.9328740835189819, 2.6290318965911865, -0.4537213444709778, 1.1287906169891357, 1.0084384679794312, 0.2675650715827942, -4.5806708335876465, -0.48888930678367615, 0.011396012268960476, -0.10470391064882278, 0.4399157762527466, 1.0242667198181152, 0.9274871349334717, -1.4473222494125366, 0.22284281253814697, 1.2598583698272705, 0.38617807626724243, -0.2356473058462143, -0.09452507644891739, -1.173244833946228, 0.26549404859542847, 0.19186928868293762, 0.13084985315799713, 0.1948690116405487, -0.6416522264480591, -1.445676326751709, 0.256489634513855, 1.411589503288269, -0.6851316094398499, -1.175649642944336, -0.4183211624622345, 1.4282760620117188, 2.8235585689544678, 1.1121224164962769, -0.43385034799575806, -0.14128029346466064], [0.952296257019043, -0.2907291650772095, 0.6219963431358337, 0.5354089736938477, 0.8248472213745117, 0.7806060910224915, -0.8727341294288635, -0.2778390645980835, 0.023224197328090668, -0.7573314905166626, -0.002074620220810175, -0.8642038106918335, -0.2643619477748871, -0.438561350107193, -0.22752615809440613, 0.6343234181404114, -0.42252588272094727, -0.7249799370765686, 0.7797877192497253, -0.77042555809021, 0.6574528217315674, 0.5253286957740784, -1.197579264640808, -0.6277115941047668, 0.6255403161048889, -0.9805790185928345, 0.8346818089485168, 0.5473052859306335, -0.017467010766267776, 0.48230093717575073, 0.22739510238170624, 0.3831697404384613, -0.5979030728340149, 1.228952407836914, -1.4640214443206787, -0.5964769124984741, 0.8785713315010071, 0.6338141560554504, 0.14140957593917847, 0.4049379229545593, 1.3499220609664917, -0.1292320042848587, 0.7447099089622498, 0.26464641094207764, 0.5732234120368958, -0.766303539276123, -0.0008189414511434734, 0.6016903519630432, -0.4910542070865631, -0.6811350584030151, -0.29314735531806946, -0.941896915435791, -0.23173850774765015, -1.181870460510254, 0.497115820646286, -0.7859468460083008, -0.7281644344329834, 0.7670581936836243, -0.7820733785629272, 0.1181582361459732, -0.04830675199627876, -0.9147552847862244, -0.8312025666236877, 0.6735814809799194], [-0.503112256526947, -0.6341450810432434, 0.4997466206550598, 2.205958604812622, 0.40124812722206116, 1.8319298028945923, 0.9639525413513184, -0.5258111357688904, 1.0812454223632812, -0.16719353199005127, 1.1157400608062744, 0.6270673274993896, -1.2198179960250854, 1.1291276216506958, -0.07241809368133545, -0.057430755347013474, -0.23928950726985931, 0.46346718072891235, -0.7991225719451904, -1.42672860622406, 0.356175035238266, 1.5763581991195679, 0.9405905604362488, -1.5028482675552368, 0.2240688055753708, 1.1066702604293823, 1.1024309396743774, 4.29910135269165, 1.3225462436676025, -2.3919789791107178, 0.24365369975566864, -1.1086279153823853, -1.320227861404419, -0.06451132893562317, 4.275487422943115, 0.18468184769153595, 0.2727862000465393, 0.06617174297571182, -0.4293924868106842, -0.9680479764938354, -0.8443264365196228, 1.1428498029708862, -0.3915606737136841, -0.9286518096923828, -0.3206988573074341, -0.06566578149795532, 0.04900409281253815, 1.0321118831634521, -0.08880870044231415, -0.024020526558160782, -0.2535548806190491, 0.08970316499471664, 0.7196347117424011, 1.5624953508377075, -0.12055056542158127, -1.4591970443725586, 0.5887892246246338, 1.122258186340332, 0.6064748167991638, -1.5555791854858398, -2.633389711380005, -0.6234828233718872, 0.35946765542030334, -0.1613864004611969], [0.8320907950401306, -0.18633584678173065, 0.24622543156147003, 0.6390528082847595, 0.6878233551979065, 0.42786088585853577, -0.6846438050270081, -0.4713840186595917, 0.42381981015205383, -0.7345191836357117, -0.16570448875427246, -0.8710829019546509, -0.1232416182756424, -0.5363592505455017, 0.19271132349967957, 0.18436932563781738, -0.6702483296394348, -0.36171409487724304, 0.36936214566230774, -0.5356042385101318, 1.0450400114059448, 0.6167812943458557, -0.8443411588668823, -0.8242087960243225, 0.587922990322113, -0.7195613384246826, 0.8813772797584534, 0.6086759567260742, -0.05467347800731659, 0.013330440036952496, 0.4985792338848114, 0.30379313230514526, -0.6027455925941467, 1.1521662473678589, -1.9192975759506226, -0.814512312412262, 0.6881117224693298, 0.9856401681900024, 0.7880192995071411, 0.1311672031879425, 0.5228968262672424, 0.004542734008282423, 0.9041345119476318, 0.5223933458328247, 0.7684291005134583, -1.2565768957138062, 0.11352333426475525, 0.48222172260284424, -0.5174724459648132, -0.3913007378578186, -0.19592031836509705, -0.4314924478530884, -0.4314209222793579, -0.7707042694091797, 0.2075226604938507, -0.33183926343917847, -0.3757898509502411, 0.708977222442627, -0.6041133999824524, -0.2932390868663788, -0.15242883563041687, -0.5585428476333618, -0.4485536217689514, 0.5258967280387878], [0.27814653515815735, 1.5248645544052124, -0.17076289653778076, -2.6890830993652344, 8.704035758972168, 1.8863435983657837, -1.0538626909255981, -8.017790794372559, -1.4797486066818237, -0.17997285723686218, -4.573672771453857, -0.3031104803085327, -1.4435398578643799, 0.12782907485961914, -0.07815977931022644, 1.3645957708358765, -9.06397533416748, -0.02633725479245186, 0.23690983653068542, 1.124761939048767, 0.244060218334198, -1.833574891090393, -1.4418470859527588, 0.10158420354127884, 7.4561285972595215, 0.050812046974897385, -0.8576409220695496, -1.3561228513717651, 1.0532379150390625, 1.5601332187652588, -0.586493968963623, -0.6621559858322144, 1.3254740238189697, 0.5705850124359131, -0.027173452079296112, -2.628973960876465, 1.0680370330810547, -0.11141911149024963, 3.9616856575012207, 4.1469807624816895, -0.03421102091670036, -6.065598011016846, -0.4788382053375244, -1.2718065977096558, 1.1256762742996216, -1.1344774961471558, -1.2186076641082764, -1.3044904470443726, -5.651186466217041, 0.1619616001844406, 0.995937705039978, -8.471394538879395, -0.7780402898788452, 0.20459282398223877, 1.9645726680755615, 0.7337918281555176, 0.41626590490341187, -0.504590630531311, -0.19859367609024048, -1.5938469171524048, 2.3844239711761475, -0.7809084057807922, -2.7209973335266113, -0.19144085049629211], [-0.2305852472782135, 0.1607297956943512, -0.09062445908784866, -1.1907159090042114, 0.0422619953751564, -0.16716693341732025, 0.21351301670074463, -0.15055976808071136, -0.4129219353199005, 0.18492500483989716, -0.08212336897850037, 0.11001686006784439, -0.07593820989131927, 0.16324040293693542, -0.3497430682182312, 0.35309910774230957, 0.07127215713262558, -0.006985172163695097, 0.10550110042095184, 0.8033055663108826, 0.10860519111156464, -0.8664208054542542, 0.13745556771755219, 0.6662155985832214, 0.13853929936885834, 0.8006875514984131, -0.9874012470245361, -1.2299308776855469, 0.5002028346061707, 0.29611292481422424, -0.5029973983764648, -0.13501735031604767, 0.622341513633728, -0.439268559217453, 0.7977883815765381, -0.09933675080537796, -0.250495582818985, -0.9873420000076294, -0.06110347807407379, 0.2695122957229614, -0.16341307759284973, -0.504004180431366, -0.9033975601196289, -0.2787640392780304, -0.3206714689731598, 0.4840767979621887, -0.42982426285743713, 0.1997787356376648, -0.19484487175941467, 0.35790830850601196, 0.11966416984796524, 0.5436674952507019, -0.4648350775241852, 0.632249653339386, 0.19077889621257782, 0.039431214332580566, 0.09721218794584274, -0.4384089410305023, 0.2942742109298706, -0.02762879990041256, 0.8993787169456482, 0.3658561408519745, -0.04279185086488724, -0.1393880993127823], [0.16307644546031952, 0.3091753125190735, -1.6878174543380737, -3.9143753051757812, -13.719708442687988, -6.18412971496582, -2.1161015033721924, 10.523025512695312, -0.28949007391929626, 0.12970562279224396, 1.2095272541046143, -0.4263937771320343, 3.236757516860962, -0.8082463145256042, 0.9514415264129639, -1.293924331665039, 11.015713691711426, -0.6024459600448608, 1.1255382299423218, 2.1170597076416016, -2.794685125350952, -1.3922669887542725, -1.6634900569915771, 6.486339569091797, -6.798572063446045, -1.790084719657898, -1.8953896760940552, -6.06573486328125, -2.903688669204712, 4.219106674194336, -0.4281761348247528, 1.7636808156967163, 2.6376278400421143, 0.46854397654533386, -11.428372383117676, -0.18847541511058807, -1.120948314666748, 0.5628052949905396, -0.7293773889541626, 1.7552070617675781, 0.9536221027374268, -1.4640535116195679, 1.936206579208374, 3.7070889472961426, -0.59716796875, 0.8667550086975098, 1.4732701778411865, -1.3495293855667114, 8.174927711486816, 0.5017815232276917, 0.34233078360557556, 9.33859920501709, -0.6883038282394409, -2.424363851547241, -0.09448648244142532, 1.573733925819397, -0.9620618224143982, -0.8681033849716187, -0.8455944657325745, 5.236641883850098, 5.553073406219482, 5.981246471405029, -0.4453861713409424, -2.4775710105895996], [-0.17412756383419037, -0.6178843975067139, -0.2758065462112427, 0.48546528816223145, -1.6443525552749634, -0.9415417313575745, 0.2619873285293579, 1.1115708351135254, 0.5332126617431641, 0.20756982266902924, 2.046208381652832, -0.6026386022567749, 0.6557664275169373, -0.18388475477695465, 0.01297743245959282, -0.7618955373764038, 0.917952835559845, -0.1916205883026123, -0.054443322122097015, -0.349403977394104, -0.3297189772129059, 0.36003416776657104, 0.043661583214998245, 0.20277336239814758, -2.1172983646392822, -0.032765720039606094, 0.4057203531265259, 0.36633825302124023, -0.6634869575500488, -0.5920777916908264, 0.23763513565063477, 0.3152869641780853, -0.43626073002815247, -0.2880775034427643, 0.36962881684303284, 0.6402475237846375, -0.41511788964271545, 0.4433240592479706, -0.8141274452209473, -0.864966630935669, 0.04727570340037346, 2.117518186569214, 0.6538026928901672, 0.427630752325058, -0.2320365011692047, 0.20456534624099731, 0.44475534558296204, 0.5220288634300232, 0.8637015223503113, -0.23665212094783783, -0.026893125846982002, 1.0790916681289673, 0.24470855295658112, -0.1642344743013382, -0.38780635595321655, -0.5111389756202698, -0.21527110040187836, 0.10253658890724182, -0.4626016318798065, 0.5585811138153076, -0.804930567741394, 0.7650525569915771, 0.8540992736816406, 0.3203483521938324], [-0.012649045325815678, 0.686346173286438, -0.6489554643630981, -2.227785110473633, -0.6278666853904724, -1.4905637502670288, -0.37716013193130493, 0.57410728931427, -1.3355920314788818, -0.03272036835551262, -0.33426526188850403, -0.40480369329452515, 1.5475752353668213, -1.076707363128662, -0.018362844362854958, -0.14756618440151215, 0.2210109382867813, -0.7953945398330688, 0.6954154968261719, 1.3937782049179077, -0.5089972019195557, -1.5302013158798218, -0.8198287487030029, 1.5320607423782349, 0.3016304075717926, -0.8703126311302185, -1.4117692708969116, -4.001791000366211, -1.22640860080719, 2.1494781970977783, -0.19395720958709717, 0.8766921758651733, 0.69003826379776, 0.015927741304039955, -3.8728721141815186, -0.19631105661392212, -0.12767855823040009, 0.07728943973779678, 0.17440953850746155, 0.8506296873092651, 0.880207896232605, -1.1966758966445923, 0.05281376466155052, 0.8203263282775879, 0.3548533320426941, -0.2143673151731491, 0.10742364823818207, -1.0380431413650513, 0.31246522068977356, 0.21723707020282745, 0.24090410768985748, -0.1741599142551422, -0.9000880122184753, -1.5946041345596313, -0.028632936999201775, 1.7069625854492188, -0.7754538059234619, -0.8891676068305969, -0.12930463254451752, 1.1079024076461792, 2.5697200298309326, 0.506998598575592, -0.1345587968826294, 0.05443038418889046]], "action": [[0.8725243806838989, -0.8480793237686157, 3.3651533126831055, -0.8874202966690063, -0.8114358186721802, -1.2294564247131348, -2.9606642723083496, -2.1384787559509277, -2.983128309249878, -0.8523387312889099, -1.0401573181152344, -0.8473986983299255, -0.8314858078956604, 0.9593979120254517, -2.260707139968872, 0.8498360514640808, 3.22598934173584, 0.9212730526924133, -0.9816257357597351, -1.1726973056793213, 4.973326683044434, 0.856748640537262, -1.107609748840332, 2.3496477603912354, -1.3076554536819458, -0.8329653739929199, -0.903154194355011, 0.9131695628166199, -1.1569479703903198, -0.9085549712181091, 0.8223533034324646, -1.0079739093780518, 4.114038944244385, 1.9750858545303345, -0.850267767906189, 1.006996750831604, -0.8924132585525513, -0.8512941002845764, 0.8571412563323975, -3.8776423931121826, -4.722557544708252, 0.9752852916717529, -1.1334806680679321, -4.619878768920898, 1.1098438501358032, 1.150363564491272, -4.651537895202637, -1.0572577714920044, -1.7987474203109741, 0.81621253490448, -4.471608638763428, -1.3345378637313843, 0.8738200664520264, -0.9781724214553833, 0.8121672868728638, 5.309366703033447, -0.8491760492324829, -4.862248420715332, -0.9279851317405701, 2.7581329345703125, 0.9244208931922913, -3.173456907272339, -1.2705105543136597, 3.971235513687134], [-0.8728950023651123, 0.8492543697357178, -3.365082025527954, 0.8873871564865112, 0.8120633363723755, 1.227955937385559, 2.959455728530884, 2.1353023052215576, 2.9832851886749268, 0.8509321808815002, 1.0403814315795898, 0.8453300595283508, 0.8313553929328918, -0.9586960673332214, 2.2598137855529785, -0.8500077724456787, -3.2235307693481445, -0.9221957325935364, 0.9835951328277588, 1.1733736991882324, -4.974673271179199, -0.8577520251274109, 1.11053466796875, -2.351433277130127, 1.3100659847259521, 0.8354669213294983, 0.9041287899017334, -0.912066638469696, 1.156844973564148, 0.9111496806144714, -0.8215085864067078, 1.0087714195251465, -4.116949558258057, -1.9733567237854004, 0.8492919206619263, -1.0063542127609253, 0.8933312296867371, 0.8531888127326965, -0.8613832592964172, 3.8792428970336914, 4.723964691162109, -0.9754365086555481, 1.1347593069076538, 4.6217780113220215, -1.1122061014175415, -1.1526129245758057, 4.650066375732422, 1.0550044775009155, 1.7989014387130737, -0.8157113194465637, 4.475637435913086, 1.3350664377212524, -0.8755412697792053, 0.9822086095809937, -0.8139126300811768, -5.310650825500488, 0.8508789539337158, 4.863173484802246, 0.9269466996192932, -2.757704734802246, -0.9231498837471008, 3.1724815368652344, 1.2735350131988525, -3.9740872383117676]]}, "biases": {"layer0": [-0.002508009783923626, 0.0034860495943576097, 0.08105606585741043, 0.02921755611896515, -0.2789665460586548, -0.01831047236919403, -0.0024814666248857975, 0.38833439350128174, 0.012867670506238937, -0.058474671095609665, 0.012900030240416527, -0.02298852801322937, 0.037134796380996704, 0.012858184054493904, -0.06611130386590958, -0.006591325160115957, 0.6091841459274292, -0.020087724551558495, 0.010885237716138363, -0.016418350860476494, -0.0017372672446072102, 0.03588511422276497, 0.01921483688056469, 0.01873827911913395, -0.1925034075975418, 0.036948349326848984, 0.00793853122740984, -0.025878451764583588, 0.04403913766145706, 0.023944610729813576, 0.011406762525439262, 0.0048402599059045315, -0.024244530126452446, -0.2884838879108429, -0.01854752190411091, 0.06214757263660431, -0.1599643975496292, -0.34491926431655884, -0.040065519511699677, 0.043798502534627914, -0.0065755778923630714, -0.03464030846953392, -0.017699476331472397, 0.0829879492521286, -0.08559860289096832, 0.4634183943271637, 0.0321091003715992, 0.009980365633964539, 0.3609688878059387, -0.02789732627570629, 0.0089809475466609, 0.5004644989967346, -0.028592519462108612, 0.0029275785200297832, -0.0714934840798378, -0.01659041829407215, -0.008327167481184006, 0.00437723146751523, -0.05082106217741966, 0.027451733127236366, 0.050365202128887177, 0.032492928206920624, -0.03648167848587036, -0.16191571950912476], "layer1": [1.008849859237671, -0.8411873579025269, -0.027504386380314827, -0.909444272518158, -0.45408177375793457, -0.18156100809574127, -0.1197822242975235, 0.2607786953449249, 1.1894572973251343, -1.0030779838562012, -0.06304247677326202, -1.0499669313430786, -0.2860320210456848, 0.3702477216720581, 0.8612566590309143, 0.8353893756866455, -0.09317617863416672, 0.8281407356262207, -0.6756975650787354, -0.33449995517730713, -0.019941622391343117, 1.056204915046692, 0.16388650238513947, 0.05074969306588173, -0.18800900876522064, -1.1610134840011597, -0.30581918358802795, 0.8745588660240173, -0.2886970043182373, -0.3227424621582031, 0.3932326138019562, -0.1521308273077011, -0.05238192901015282, -0.15235215425491333, -0.5824093222618103, 0.21791255474090576, -0.6307727694511414, -1.1585173606872559, 1.0757311582565308, 0.040152303874492645, -0.03077058307826519, 0.3845171630382538, -0.11902084946632385, 0.010596337728202343, 0.07351240515708923, 0.1787298172712326, 0.012118598446249962, -0.19510982930660248, 0.20315980911254883, 0.5056541562080383, 